tree
version=v4
num_class=1
num_tree_per_iteration=1
label_index=0
max_feature_idx=782
objective=binary sigmoid:1
feature_names=numero_de_cliente foto_mes active_quarter cliente_vip internet cliente_edad cliente_antiguedad mrentabilidad mrentabilidad_annual mcomisiones mactivos_margen mpasivos_margen cproductos tpaquete1 tpaquete2 tpaquete7 tpaquete9 tcuentas ccuenta_corriente mcuenta_corriente_adicional mcuenta_corriente ccaja_ahorro mcaja_ahorro mcaja_ahorro_adicional mcaja_ahorro_dolares mdescubierto_preacordado mcuentas_saldo ctarjeta_debito ctarjeta_debito_trx mautoservicio ctarjeta_visa ctarjeta_visa_trx mtarjeta_visa_consumo ctarjeta_master ctarjeta_master_trx mtarjeta_master_consumo cprestamos_personales mprestamos_personales cprestamos_prendarios mprestamos_prendarios cprestamos_hipotecarios mprestamos_hipotecarios cplazo_fijo mplazo_fijo_dolares mplazo_fijo_pesos cinversion1 minversion1_pesos minversion1_dolares cinversion2 minversion2 cseguro_vida cseguro_auto cseguro_vivienda cseguro_accidentes_personales ccaja_seguridad cpayroll_trx mpayroll mpayroll2 cpayroll2_trx ccuenta_debitos_automaticos mcuenta_debitos_automaticos ctarjeta_visa_debitos_automaticos mtarjeta_visa_debitos_automaticos ctarjeta_master_debitos_automaticos mttarjeta_master_debitos_automaticos cpagodeservicios mpagodeservicios cpagomiscuentas mpagomiscuentas ccajeros_propios_descuentos mcajeros_propios_descuentos ctarjeta_visa_descuentos mtarjeta_visa_descuentos ctarjeta_master_descuentos mtarjeta_master_descuentos ccomisiones_mantenimiento mcomisiones_mantenimiento ccomisiones_otras mcomisiones_otras cforex cforex_buy mforex_buy cforex_sell mforex_sell ctransferencias_recibidas mtransferencias_recibidas ctransferencias_emitidas mtransferencias_emitidas cextraccion_autoservicio mextraccion_autoservicio ccheques_depositados mcheques_depositados ccheques_emitidos mcheques_emitidos ccheques_depositados_rechazados mcheques_depositados_rechazados ccheques_emitidos_rechazados mcheques_emitidos_rechazados tcallcenter ccallcenter_trx thomebanking chomebanking_trx ccajas_trx ccajas_consultas ccajas_depositos ccajas_extracciones ccajas_otras catm_trx matm catm_trx_other matm_other ctrx_quarter tmobile_app cmobile_app_trx Master_delinquency Master_status Master_mfinanciacion_limite Master_Fvencimiento Master_Finiciomora Master_msaldototal Master_msaldopesos Master_msaldodolares Master_mconsumospesos Master_mconsumosdolares Master_mlimitecompra Master_madelantopesos Master_madelantodolares Master_fultimo_cierre Master_mpagado Master_mpagospesos Master_mpagosdolares Master_fechaalta Master_mconsumototal Master_cconsumos Master_cadelantosefectivo Master_mpagominimo Visa_delinquency Visa_status Visa_mfinanciacion_limite Visa_Fvencimiento Visa_Finiciomora Visa_msaldototal Visa_msaldopesos Visa_msaldodolares Visa_mconsumospesos Visa_mconsumosdolares Visa_mlimitecompra Visa_madelantopesos Visa_madelantodolares Visa_fultimo_cierre Visa_mpagado Visa_mpagospesos Visa_mpagosdolares Visa_fechaalta Visa_mconsumototal Visa_cconsumos Visa_cadelantosefectivo Visa_mpagominimo mes active_quarter_tend6 active_quarter_avg6 cliente_vip_tend6 cliente_vip_avg6 internet_tend6 internet_avg6 cliente_edad_tend6 cliente_edad_avg6 cliente_antiguedad_tend6 cliente_antiguedad_avg6 mrentabilidad_tend6 mrentabilidad_avg6 mrentabilidad_annual_tend6 mrentabilidad_annual_avg6 mcomisiones_tend6 mcomisiones_avg6 mactivos_margen_tend6 mactivos_margen_avg6 mpasivos_margen_tend6 mpasivos_margen_avg6 cproductos_tend6 cproductos_avg6 tpaquete1_tend6 tpaquete1_avg6 tpaquete2_tend6 tpaquete2_avg6 tpaquete7_tend6 tpaquete7_avg6 tpaquete9_tend6 tpaquete9_avg6 tcuentas_tend6 tcuentas_avg6 ccuenta_corriente_tend6 ccuenta_corriente_avg6 mcuenta_corriente_adicional_tend6 mcuenta_corriente_adicional_avg6 mcuenta_corriente_tend6 mcuenta_corriente_avg6 ccaja_ahorro_tend6 ccaja_ahorro_avg6 mcaja_ahorro_tend6 mcaja_ahorro_avg6 mcaja_ahorro_adicional_tend6 mcaja_ahorro_adicional_avg6 mcaja_ahorro_dolares_tend6 mcaja_ahorro_dolares_avg6 mdescubierto_preacordado_tend6 mdescubierto_preacordado_avg6 mcuentas_saldo_tend6 mcuentas_saldo_avg6 ctarjeta_debito_tend6 ctarjeta_debito_avg6 ctarjeta_debito_trx_tend6 ctarjeta_debito_trx_avg6 mautoservicio_tend6 mautoservicio_avg6 ctarjeta_visa_tend6 ctarjeta_visa_avg6 ctarjeta_visa_trx_tend6 ctarjeta_visa_trx_avg6 mtarjeta_visa_consumo_tend6 mtarjeta_visa_consumo_avg6 ctarjeta_master_tend6 ctarjeta_master_avg6 ctarjeta_master_trx_tend6 ctarjeta_master_trx_avg6 mtarjeta_master_consumo_tend6 mtarjeta_master_consumo_avg6 cprestamos_personales_tend6 cprestamos_personales_avg6 mprestamos_personales_tend6 mprestamos_personales_avg6 cprestamos_prendarios_tend6 cprestamos_prendarios_avg6 mprestamos_prendarios_tend6 mprestamos_prendarios_avg6 cprestamos_hipotecarios_tend6 cprestamos_hipotecarios_avg6 mprestamos_hipotecarios_tend6 mprestamos_hipotecarios_avg6 cplazo_fijo_tend6 cplazo_fijo_avg6 mplazo_fijo_dolares_tend6 mplazo_fijo_dolares_avg6 mplazo_fijo_pesos_tend6 mplazo_fijo_pesos_avg6 cinversion1_tend6 cinversion1_avg6 minversion1_pesos_tend6 minversion1_pesos_avg6 minversion1_dolares_tend6 minversion1_dolares_avg6 cinversion2_tend6 cinversion2_avg6 minversion2_tend6 minversion2_avg6 cseguro_vida_tend6 cseguro_vida_avg6 cseguro_auto_tend6 cseguro_auto_avg6 cseguro_vivienda_tend6 cseguro_vivienda_avg6 cseguro_accidentes_personales_tend6 cseguro_accidentes_personales_avg6 ccaja_seguridad_tend6 ccaja_seguridad_avg6 cpayroll_trx_tend6 cpayroll_trx_avg6 mpayroll_tend6 mpayroll_avg6 mpayroll2_tend6 mpayroll2_avg6 cpayroll2_trx_tend6 cpayroll2_trx_avg6 ccuenta_debitos_automaticos_tend6 ccuenta_debitos_automaticos_avg6 mcuenta_debitos_automaticos_tend6 mcuenta_debitos_automaticos_avg6 ctarjeta_visa_debitos_automaticos_tend6 ctarjeta_visa_debitos_automaticos_avg6 mtarjeta_visa_debitos_automaticos_tend6 mtarjeta_visa_debitos_automaticos_avg6 ctarjeta_master_debitos_automaticos_tend6 ctarjeta_master_debitos_automaticos_avg6 mttarjeta_master_debitos_automaticos_tend6 mttarjeta_master_debitos_automaticos_avg6 cpagodeservicios_tend6 cpagodeservicios_avg6 mpagodeservicios_tend6 mpagodeservicios_avg6 cpagomiscuentas_tend6 cpagomiscuentas_avg6 mpagomiscuentas_tend6 mpagomiscuentas_avg6 ccajeros_propios_descuentos_tend6 ccajeros_propios_descuentos_avg6 mcajeros_propios_descuentos_tend6 mcajeros_propios_descuentos_avg6 ctarjeta_visa_descuentos_tend6 ctarjeta_visa_descuentos_avg6 mtarjeta_visa_descuentos_tend6 mtarjeta_visa_descuentos_avg6 ctarjeta_master_descuentos_tend6 ctarjeta_master_descuentos_avg6 mtarjeta_master_descuentos_tend6 mtarjeta_master_descuentos_avg6 ccomisiones_mantenimiento_tend6 ccomisiones_mantenimiento_avg6 mcomisiones_mantenimiento_tend6 mcomisiones_mantenimiento_avg6 ccomisiones_otras_tend6 ccomisiones_otras_avg6 mcomisiones_otras_tend6 mcomisiones_otras_avg6 cforex_tend6 cforex_avg6 cforex_buy_tend6 cforex_buy_avg6 mforex_buy_tend6 mforex_buy_avg6 cforex_sell_tend6 cforex_sell_avg6 mforex_sell_tend6 mforex_sell_avg6 ctransferencias_recibidas_tend6 ctransferencias_recibidas_avg6 mtransferencias_recibidas_tend6 mtransferencias_recibidas_avg6 ctransferencias_emitidas_tend6 ctransferencias_emitidas_avg6 mtransferencias_emitidas_tend6 mtransferencias_emitidas_avg6 cextraccion_autoservicio_tend6 cextraccion_autoservicio_avg6 mextraccion_autoservicio_tend6 mextraccion_autoservicio_avg6 ccheques_depositados_tend6 ccheques_depositados_avg6 mcheques_depositados_tend6 mcheques_depositados_avg6 ccheques_emitidos_tend6 ccheques_emitidos_avg6 mcheques_emitidos_tend6 mcheques_emitidos_avg6 ccheques_depositados_rechazados_tend6 ccheques_depositados_rechazados_avg6 mcheques_depositados_rechazados_tend6 mcheques_depositados_rechazados_avg6 ccheques_emitidos_rechazados_tend6 ccheques_emitidos_rechazados_avg6 mcheques_emitidos_rechazados_tend6 mcheques_emitidos_rechazados_avg6 tcallcenter_tend6 tcallcenter_avg6 ccallcenter_trx_tend6 ccallcenter_trx_avg6 thomebanking_tend6 thomebanking_avg6 chomebanking_trx_tend6 chomebanking_trx_avg6 ccajas_trx_tend6 ccajas_trx_avg6 ccajas_consultas_tend6 ccajas_consultas_avg6 ccajas_depositos_tend6 ccajas_depositos_avg6 ccajas_extracciones_tend6 ccajas_extracciones_avg6 ccajas_otras_tend6 ccajas_otras_avg6 catm_trx_tend6 catm_trx_avg6 matm_tend6 matm_avg6 catm_trx_other_tend6 catm_trx_other_avg6 matm_other_tend6 matm_other_avg6 ctrx_quarter_tend6 ctrx_quarter_avg6 tmobile_app_tend6 tmobile_app_avg6 cmobile_app_trx_tend6 cmobile_app_trx_avg6 Master_delinquency_tend6 Master_delinquency_avg6 Master_status_tend6 Master_status_avg6 Master_mfinanciacion_limite_tend6 Master_mfinanciacion_limite_avg6 Master_Fvencimiento_tend6 Master_Fvencimiento_avg6 Master_Finiciomora_tend6 Master_Finiciomora_avg6 Master_msaldototal_tend6 Master_msaldototal_avg6 Master_msaldopesos_tend6 Master_msaldopesos_avg6 Master_msaldodolares_tend6 Master_msaldodolares_avg6 Master_mconsumospesos_tend6 Master_mconsumospesos_avg6 Master_mconsumosdolares_tend6 Master_mconsumosdolares_avg6 Master_mlimitecompra_tend6 Master_mlimitecompra_avg6 Master_madelantopesos_tend6 Master_madelantopesos_avg6 Master_madelantodolares_tend6 Master_madelantodolares_avg6 Master_fultimo_cierre_tend6 Master_fultimo_cierre_avg6 Master_mpagado_tend6 Master_mpagado_avg6 Master_mpagospesos_tend6 Master_mpagospesos_avg6 Master_mpagosdolares_tend6 Master_mpagosdolares_avg6 Master_fechaalta_tend6 Master_fechaalta_avg6 Master_mconsumototal_tend6 Master_mconsumototal_avg6 Master_cconsumos_tend6 Master_cconsumos_avg6 Master_cadelantosefectivo_tend6 Master_cadelantosefectivo_avg6 Master_mpagominimo_tend6 Master_mpagominimo_avg6 Visa_delinquency_tend6 Visa_delinquency_avg6 Visa_status_tend6 Visa_status_avg6 Visa_mfinanciacion_limite_tend6 Visa_mfinanciacion_limite_avg6 Visa_Fvencimiento_tend6 Visa_Fvencimiento_avg6 Visa_Finiciomora_tend6 Visa_Finiciomora_avg6 Visa_msaldototal_tend6 Visa_msaldototal_avg6 Visa_msaldopesos_tend6 Visa_msaldopesos_avg6 Visa_msaldodolares_tend6 Visa_msaldodolares_avg6 Visa_mconsumospesos_tend6 Visa_mconsumospesos_avg6 Visa_mconsumosdolares_tend6 Visa_mconsumosdolares_avg6 Visa_mlimitecompra_tend6 Visa_mlimitecompra_avg6 Visa_madelantopesos_tend6 Visa_madelantopesos_avg6 Visa_madelantodolares_tend6 Visa_madelantodolares_avg6 Visa_fultimo_cierre_tend6 Visa_fultimo_cierre_avg6 Visa_mpagado_tend6 Visa_mpagado_avg6 Visa_mpagospesos_tend6 Visa_mpagospesos_avg6 Visa_mpagosdolares_tend6 Visa_mpagosdolares_avg6 Visa_fechaalta_tend6 Visa_fechaalta_avg6 Visa_mconsumototal_tend6 Visa_mconsumototal_avg6 Visa_cconsumos_tend6 Visa_cconsumos_avg6 Visa_cadelantosefectivo_tend6 Visa_cadelantosefectivo_avg6 Visa_mpagominimo_tend6 Visa_mpagominimo_avg6 active_quarter_lag1 cliente_vip_lag1 internet_lag1 cliente_edad_lag1 cliente_antiguedad_lag1 mrentabilidad_lag1 mrentabilidad_annual_lag1 mcomisiones_lag1 mactivos_margen_lag1 mpasivos_margen_lag1 cproductos_lag1 tpaquete1_lag1 tpaquete2_lag1 tpaquete7_lag1 tpaquete9_lag1 tcuentas_lag1 ccuenta_corriente_lag1 mcuenta_corriente_adicional_lag1 mcuenta_corriente_lag1 ccaja_ahorro_lag1 mcaja_ahorro_lag1 mcaja_ahorro_adicional_lag1 mcaja_ahorro_dolares_lag1 mdescubierto_preacordado_lag1 mcuentas_saldo_lag1 ctarjeta_debito_lag1 ctarjeta_debito_trx_lag1 mautoservicio_lag1 ctarjeta_visa_lag1 ctarjeta_visa_trx_lag1 mtarjeta_visa_consumo_lag1 ctarjeta_master_lag1 ctarjeta_master_trx_lag1 mtarjeta_master_consumo_lag1 cprestamos_personales_lag1 mprestamos_personales_lag1 cprestamos_prendarios_lag1 mprestamos_prendarios_lag1 cprestamos_hipotecarios_lag1 mprestamos_hipotecarios_lag1 cplazo_fijo_lag1 mplazo_fijo_dolares_lag1 mplazo_fijo_pesos_lag1 cinversion1_lag1 minversion1_pesos_lag1 minversion1_dolares_lag1 cinversion2_lag1 minversion2_lag1 cseguro_vida_lag1 cseguro_auto_lag1 cseguro_vivienda_lag1 cseguro_accidentes_personales_lag1 ccaja_seguridad_lag1 cpayroll_trx_lag1 mpayroll_lag1 mpayroll2_lag1 cpayroll2_trx_lag1 ccuenta_debitos_automaticos_lag1 mcuenta_debitos_automaticos_lag1 ctarjeta_visa_debitos_automaticos_lag1 mtarjeta_visa_debitos_automaticos_lag1 ctarjeta_master_debitos_automaticos_lag1 mttarjeta_master_debitos_automaticos_lag1 cpagodeservicios_lag1 mpagodeservicios_lag1 cpagomiscuentas_lag1 mpagomiscuentas_lag1 ccajeros_propios_descuentos_lag1 mcajeros_propios_descuentos_lag1 ctarjeta_visa_descuentos_lag1 mtarjeta_visa_descuentos_lag1 ctarjeta_master_descuentos_lag1 mtarjeta_master_descuentos_lag1 ccomisiones_mantenimiento_lag1 mcomisiones_mantenimiento_lag1 ccomisiones_otras_lag1 mcomisiones_otras_lag1 cforex_lag1 cforex_buy_lag1 mforex_buy_lag1 cforex_sell_lag1 mforex_sell_lag1 ctransferencias_recibidas_lag1 mtransferencias_recibidas_lag1 ctransferencias_emitidas_lag1 mtransferencias_emitidas_lag1 cextraccion_autoservicio_lag1 mextraccion_autoservicio_lag1 ccheques_depositados_lag1 mcheques_depositados_lag1 ccheques_emitidos_lag1 mcheques_emitidos_lag1 ccheques_depositados_rechazados_lag1 mcheques_depositados_rechazados_lag1 ccheques_emitidos_rechazados_lag1 mcheques_emitidos_rechazados_lag1 tcallcenter_lag1 ccallcenter_trx_lag1 thomebanking_lag1 chomebanking_trx_lag1 ccajas_trx_lag1 ccajas_consultas_lag1 ccajas_depositos_lag1 ccajas_extracciones_lag1 ccajas_otras_lag1 catm_trx_lag1 matm_lag1 catm_trx_other_lag1 matm_other_lag1 ctrx_quarter_lag1 tmobile_app_lag1 cmobile_app_trx_lag1 Master_delinquency_lag1 Master_status_lag1 Master_mfinanciacion_limite_lag1 Master_Fvencimiento_lag1 Master_Finiciomora_lag1 Master_msaldototal_lag1 Master_msaldopesos_lag1 Master_msaldodolares_lag1 Master_mconsumospesos_lag1 Master_mconsumosdolares_lag1 Master_mlimitecompra_lag1 Master_madelantopesos_lag1 Master_madelantodolares_lag1 Master_fultimo_cierre_lag1 Master_mpagado_lag1 Master_mpagospesos_lag1 Master_mpagosdolares_lag1 Master_fechaalta_lag1 Master_mconsumototal_lag1 Master_cconsumos_lag1 Master_cadelantosefectivo_lag1 Master_mpagominimo_lag1 Visa_delinquency_lag1 Visa_status_lag1 Visa_mfinanciacion_limite_lag1 Visa_Fvencimiento_lag1 Visa_Finiciomora_lag1 Visa_msaldototal_lag1 Visa_msaldopesos_lag1 Visa_msaldodolares_lag1 Visa_mconsumospesos_lag1 Visa_mconsumosdolares_lag1 Visa_mlimitecompra_lag1 Visa_madelantopesos_lag1 Visa_madelantodolares_lag1 Visa_fultimo_cierre_lag1 Visa_mpagado_lag1 Visa_mpagospesos_lag1 Visa_mpagosdolares_lag1 Visa_fechaalta_lag1 Visa_mconsumototal_lag1 Visa_cconsumos_lag1 Visa_cadelantosefectivo_lag1 Visa_mpagominimo_lag1 active_quarter_delta1 cliente_vip_delta1 internet_delta1 cliente_edad_delta1 cliente_antiguedad_delta1 mrentabilidad_delta1 mrentabilidad_annual_delta1 mcomisiones_delta1 mactivos_margen_delta1 mpasivos_margen_delta1 cproductos_delta1 tpaquete1_delta1 tpaquete2_delta1 tpaquete7_delta1 tpaquete9_delta1 tcuentas_delta1 ccuenta_corriente_delta1 mcuenta_corriente_adicional_delta1 mcuenta_corriente_delta1 ccaja_ahorro_delta1 mcaja_ahorro_delta1 mcaja_ahorro_adicional_delta1 mcaja_ahorro_dolares_delta1 mdescubierto_preacordado_delta1 mcuentas_saldo_delta1 ctarjeta_debito_delta1 ctarjeta_debito_trx_delta1 mautoservicio_delta1 ctarjeta_visa_delta1 ctarjeta_visa_trx_delta1 mtarjeta_visa_consumo_delta1 ctarjeta_master_delta1 ctarjeta_master_trx_delta1 mtarjeta_master_consumo_delta1 cprestamos_personales_delta1 mprestamos_personales_delta1 cprestamos_prendarios_delta1 mprestamos_prendarios_delta1 cprestamos_hipotecarios_delta1 mprestamos_hipotecarios_delta1 cplazo_fijo_delta1 mplazo_fijo_dolares_delta1 mplazo_fijo_pesos_delta1 cinversion1_delta1 minversion1_pesos_delta1 minversion1_dolares_delta1 cinversion2_delta1 minversion2_delta1 cseguro_vida_delta1 cseguro_auto_delta1 cseguro_vivienda_delta1 cseguro_accidentes_personales_delta1 ccaja_seguridad_delta1 cpayroll_trx_delta1 mpayroll_delta1 mpayroll2_delta1 cpayroll2_trx_delta1 ccuenta_debitos_automaticos_delta1 mcuenta_debitos_automaticos_delta1 ctarjeta_visa_debitos_automaticos_delta1 mtarjeta_visa_debitos_automaticos_delta1 ctarjeta_master_debitos_automaticos_delta1 mttarjeta_master_debitos_automaticos_delta1 cpagodeservicios_delta1 mpagodeservicios_delta1 cpagomiscuentas_delta1 mpagomiscuentas_delta1 ccajeros_propios_descuentos_delta1 mcajeros_propios_descuentos_delta1 ctarjeta_visa_descuentos_delta1 mtarjeta_visa_descuentos_delta1 ctarjeta_master_descuentos_delta1 mtarjeta_master_descuentos_delta1 ccomisiones_mantenimiento_delta1 mcomisiones_mantenimiento_delta1 ccomisiones_otras_delta1 mcomisiones_otras_delta1 cforex_delta1 cforex_buy_delta1 mforex_buy_delta1 cforex_sell_delta1 mforex_sell_delta1 ctransferencias_recibidas_delta1 mtransferencias_recibidas_delta1 ctransferencias_emitidas_delta1 mtransferencias_emitidas_delta1 cextraccion_autoservicio_delta1 mextraccion_autoservicio_delta1 ccheques_depositados_delta1 mcheques_depositados_delta1 ccheques_emitidos_delta1 mcheques_emitidos_delta1 ccheques_depositados_rechazados_delta1 mcheques_depositados_rechazados_delta1 ccheques_emitidos_rechazados_delta1 mcheques_emitidos_rechazados_delta1 tcallcenter_delta1 ccallcenter_trx_delta1 thomebanking_delta1 chomebanking_trx_delta1 ccajas_trx_delta1 ccajas_consultas_delta1 ccajas_depositos_delta1 ccajas_extracciones_delta1 ccajas_otras_delta1 catm_trx_delta1 matm_delta1 catm_trx_other_delta1 matm_other_delta1 ctrx_quarter_delta1 tmobile_app_delta1 cmobile_app_trx_delta1 Master_delinquency_delta1 Master_status_delta1 Master_mfinanciacion_limite_delta1 Master_Fvencimiento_delta1 Master_Finiciomora_delta1 Master_msaldototal_delta1 Master_msaldopesos_delta1 Master_msaldodolares_delta1 Master_mconsumospesos_delta1 Master_mconsumosdolares_delta1 Master_mlimitecompra_delta1 Master_madelantopesos_delta1 Master_madelantodolares_delta1 Master_fultimo_cierre_delta1 Master_mpagado_delta1 Master_mpagospesos_delta1 Master_mpagosdolares_delta1 Master_fechaalta_delta1 Master_mconsumototal_delta1 Master_cconsumos_delta1 Master_cadelantosefectivo_delta1 Master_mpagominimo_delta1 Visa_delinquency_delta1 Visa_status_delta1 Visa_mfinanciacion_limite_delta1 Visa_Fvencimiento_delta1 Visa_Finiciomora_delta1 Visa_msaldototal_delta1 Visa_msaldopesos_delta1 Visa_msaldodolares_delta1 Visa_mconsumospesos_delta1 Visa_mconsumosdolares_delta1 Visa_mlimitecompra_delta1 Visa_madelantopesos_delta1 Visa_madelantodolares_delta1 Visa_fultimo_cierre_delta1 Visa_mpagado_delta1 Visa_mpagospesos_delta1 Visa_mpagosdolares_delta1 Visa_fechaalta_delta1 Visa_mconsumototal_delta1 Visa_cconsumos_delta1 Visa_cadelantosefectivo_delta1 Visa_mpagominimo_delta1
feature_infos=[4572973:61051692] [202001:202011] [0:1] [0:1] [0:1] [18:100] [1:371] [-177667.95999999999:1724682.3600000001] [-665150.17000000004:5541331.4299999997] [-72791.619999999995:216312.95000000001] [-177929.28:327458.08000000002] [-63476.099999999999:1473863.4399999999] [3:17] [1:2] none [0:1] [0:1] [1:2] [1:3] [-738111.81999999995:1176834.8500000001] [-3573070.3300000001:27796658.640000001] [2:10] [-450.33999999999997:91519566.409999996] [-944.75999999999999:1511906.1000000001] [-22881.369999999999:102164951.84] [0:1.1699999999999999] [-4150591.0499999998:104925298.90000001] [0:301] [0:121] [0:1274326.3600000001] [0:3] [0:252] [0:2544748.79] [0:3] [0:201] [0:1748232.73] [0:241] [0:4564839.0099999998] [0:10] [-588180.23999999999:9119536.5600000005] [0:10] [0:24466152.07] [0:72] [0:34445777.310000002] [0:43764252.479999997] [0:15] [0:88223024.079999998] [0:41642861.25] [0:68] [0:342202486.69] [0:5] [0:9] [0:5] [0:4] [0:7] [0:43] [-39975.389999999999:18030116.41] [-86833.889999999999:11700000] [0:6] [0:243] [0:39325004.759999998] [0:56] [0:730698.18000000005] [0:29] [0:202996.82999999999] [0:19] [0:969728.26000000001] [0:184] [0:25406082.73] [0:19] [0:10824.309999999999] [0:27] [0:35270.230000000003] [0:74] [0:16044.91] [0:71] [-13913.34:5894.46] [0:226] [-72791.619999999995:216312.95000000001] [0:11] [0:9] [0:13338] [0:11] [0:14429.610000000001] [0:1262] [0:89367934.549999997] [0:224] [0:39854779.32] [0:95] [0:2077920] [0:237] [0:18643629.420000002] [0:148] [0:59601133.759999998] [0:22] [0:9509151.5999999996] [0:65] [0:2678163.48] [0:1] [0:113] [0:1] [0:6087] [0:1] [0:32] [0:24] [0:13] [0:95] [0:95] [0:2077920] [0:48] [0:596700] [0:2934] [0:1] [0:3435] [0:1] [0:9] [0:163743139.72999999] [-2914603:6425] [1:118] [-1288226.1799999999:4629012.1399999997] [-1008052.76:4629012.1399999997] [-1119327.8200000001:1006451.53] [-18395.369999999999:1713501.22] [0:13268.969999999999] [982.79999999999995:18034099.199999999] [0:49140] [0:558.77999999999997] [0:4735] [0:1609425.8300000001] [-1888408.0800000001:220703.85000000001] [0:15976.780000000001] [1:7481] [-18395.369999999999:1713501.22] [0:103] [0:21] [0:1997049.6000000001] [0:1] [0:9] [0:218045037.47999999] [-2914603:5054] [0:174] [-693350.53000000003:3715844.79] [-679901.12:4347538.4000000004] [-761550.22999999998:1236628.7] [-19723.459999999999:2501804.0899999999] [0:17846.220000000001] [672.75:21993660] [0:106517.38] [0:1364.2] [0:4924] [0:2002596.3100000001] [-1442843.05:317914.42999999999] [0:15919.440000000001] [1:12396] [-19723.459999999999:2501804.0899999999] [0:208] [0:13] [0:2122497] [1:11] [-1:1] [0:1] [-0.29999999999999999:0.29999999999999999] [0:1] [-1:1] [0:1] [-7.45714285714286:44] [12.5:99.8333333333333] [-67:10] [1.5:368.5] [-145846.52767441899:360807.56400000001] [-73379.401666666701:492092.48499999999] [-585141.47127907001:391659.79599999997] [-640087.11800000002:5869759.9400000004] [-47986.699999999997:40800.449999999997] [-17218.578000000001:120793.978] [-108329.624:90485.027325581395] [-133608.26999999999:233880.666] [-133251.71906976699:308596.674] [-25928.516:470345.30666666699] [-2.5:4] [3:17.8333333333333] [0:1] [1:1.6666666666666701] [0:0] [0:0] [-1:1] [0:1] [-1:1] [0:1] [-1:1] [1:2] [-0.25714285714285701:0.22857142857142901] [1:3] [-105753.120285714:79298.506571428501] [-123018.63666666699:934431.40500000003] [-3538123.8877142901:2079035.72942857] [-1819055.8883333299:23721454.971666701] [-2:2] [2:10] [-2278308.8268571398:13822858.8548571] [-11.16:16758767.560000001] [-361293.09399999998:500023.41571428598] [-303.46166666666699:1558596.9016666701] [-13452014.039999999:9549120.6425714307] [-17655.285:94825004.241666704] [-1.1699999999999999:1.1699999999999999] [0:1.1699999999999999] [-24040979.574571401:27441803.995999999] [-2315784.5033333302:102282158.12333301] [-2:2] [0:301.83333333333297] [-47:50] [0:112.8] [-103099.07000000001:229822.39000000001] [0:620001.70400000003] [-1:1] [0:3] [-42:51] [0:367.39999999999998] [-245362.21057142899:372254.46999999997] [0:1462890.6040000001] [-1:1] [0:3] [-36.299999999999997:28] [0:182.19999999999999] [-234466.04999999999:368175.01000000001] [0:1566601.1059999999] [-10.8571428571429:35.1142857142857] [0:150.166666666667] [-278040.67714285699:742200.58885714295] [0:3334791.74166667] [-1:1.3142857142857101] [0:6.8333333333333304] [-392671.583428571:810397.26171428501] [-46904.573333333297:7432592.4666666696] [-0.71428571428571397:1.3714285714285701] [0:6.8333333333333304] [-2438698.1197142899:603115.66342857201] [0:23332951.586666699] [-5.71428571428571:14.8857142857143] [0:68.3333333333333] [-19002581.229428601:6491160] [0:39412016.321666703] [-4838491.3757142797:10639618.1691429] [0:27652684.995000001] [-6:2.5] [0:14.6666666666667] [-8336334.3891428597:10050855.117142901] [0:68955946.553333297] [-3714523.8014285699:1494986.5025714301] [0:38339276.163333297] [-5:6.7428571428571402] [0:69.6666666666667] [-16246536.1457143:26774146.892571401] [0:358695872.10833299] [-2:1] [0:5] [-1:1.02857142857143] [0:9] [-1:1] [0:5] [-1:1] [0:4] [-0.80000000000000004:1] [0:7] [-11:6.9000000000000004] [0:27.1666666666667] [-2285767.0568571398:2577390.2905714302] [-12792.389999999999:10660416.585000001] [-2005714.2857142901:1671428.57142857] [-20964.060000000001:3900000] [-1.6000000000000001:4] [0:4] [-28:9] [0:219.833333333333] [-404683.87114285701:8988572.5165714305] [0:13108334.92] [-7:9] [0:51.3333333333333] [-76935.713142857101:88034.7214285714] [0:315784.59666666703] [-13.742857142857099:7.9428571428571404] [0:31.6666666666667] [-126155.89200000001:22933.580000000002] [0:203894.72333333301] [-4.4285714285714297:5] [0:20] [-89488.657142857206:84224.645000000004] [0:632842.30500000005] [-24.314285714285699:18] [0:181.333333333333] [-1260537.88857143:8113460.78057143] [0:24422682.396666698] [-18:9] [0:23.199999999999999] [-3162.5999999999999:3161.1799999999998] [-49.140000000000001:3322.4459999999999] [-8:10] [0:17.600000000000001] [-6976.125:7528.9499999999998] [0:12575.74] [-18:16] [0:25.6666666666667] [-9026.2700000000004:5853.3400000000001] [0:12636.778] [-28:10.1428571428571] [0:28.6666666666667] [-8738.0599999999995:3113.65942857143] [-5530.8900000000003:5041.3400000000001] [-52.600000000000001:52.299999999999997] [0:224.5] [-47986.699999999997:40800.449999999997] [-16341.209999999999:120793.978] [-4.9428571428571404:6] [0:12.3333333333333] [-3.8857142857142901:2] [0:9.3333333333333304] [-23410.0377142857:11399.142857142901] [0:66495] [-4.9428571428571404:6] [0:12] [-34765.714285714297:5937.2820000000002] [0:42900] [-168.085714285714:173.228571428571] [0:1398.8333333333301] [-18856640.399428599:15613155.2842857] [0:78975717.666666701] [-22.1142857142857:50.714285714285701] [0:191.333333333333] [-10712400.0094286:5519968.8948571496] [0:32617165.8166667] [-26:40] [0:89.8333333333333] [-432900:501619.95000000001] [0:1768221] [-57.5:28] [0:220.40000000000001] [-2595548.3473255802:3211275.00405405] [0:9689468.3340000007] [-18.9142857142857:16.635135135135101] [0:125] [-5609512.1661627898:10177576.272972999] [0:36350682.600000001] [-7.4324324324324298:7.8285714285714301] [0:14.6666666666667] [-265290.69767441897:1530412.2154285701] [0:2587970.1899999999] [-7.8255813953488396:10.4285714285714] [0:19.399999999999999] [-349925.36523255799:431233.35428571398] [0:928090.80000000005] [-1:1] [0:1] [-33:31] [0:131] [-1:1] [0:1] [-1032.5232558139501:1179.2285714285699] [0:3498.8000000000002] [-1:1] [0:1] [-9.8108108108108105:6] [0:32.6666666666667] [-37.148648648648603:5.9000000000000004] [0:63.799999999999997] [-6.28571428571429:9] [0:26.6666666666667] [-10:13.5714285714286] [0:39.799999999999997] [-26:40] [0:89.5] [-432900:499279.95000000001] [0:1768221] [-12:33] [0:36.5] [-73710:126115.11627907] [0:215280] [-235.28571428571399:505.48648648648702] [0:3181.1666666666702] [-1:1] [0:1] [-591:639.37142857142896] [0:2034.6666666666699] [-1:1] [0:1] [-9:9] [0:8] [-27686755.140000001:28509375.379999999] [0:29764357.664999999] [-711414.96511627897:1456800.5] [-2914619:6348.1666666666697] [-32:31] [1:125.75] [-788881.45299999998:747077.64914285601] [-630070.29666666698:2603958.0666666701] [-788881.45299999998:843407.03799999994] [-375919.46333333303:2416650.9216666701] [-287716.79428571399:126213.786285714] [-541935.47999999998:774324.41833333299] [-612202.5:349961.03000000003] [-9156.5360000000001:1526580.4633333299] [-10237.5:3249.5] [0:11841.455] [-782941.26857142895:924611.50085714296] [982.79999999999995:16835644.800000001] [-17550:16497] [0:41242.5] [-129.53999999999999:94.966000000000093] [0:442.93666666666701] [-920.20000000000005:638.60000000000002] [-0.5:4658.3333333333303] [-272433.89500000002:244416.32399999999] [0:765180.32666666701] [-587054.01500000001:640687.31999999995] [-1441230.24833333:43039.730000000003] [-5865.0299999999997:9805.1849999999995] [0:11269.559999999999] [-1414:400.857142857143] [16:7447] [-612202.5:349961.03000000003] [-9156.5360000000001:1526580.4633333299] [-36:32] [0:162] [-9:11] [0:24.6666666666667] [-243097.92000000001:354994.71428571403] [0:709129.97999999998] [-1:1] [0:1] [-9:9] [0:9] [-27686755.140000001:78710462.769999996] [0:39785770.905000001] [-666025.68571428605:2913113] [-2915111.5:4977.3333333333303] [-32:31] [0:98.5] [-1264965.26:717447.40000000002] [-415923.35833333299:2721758.2683333298] [-1480009.3500000001:947400.58200000098] [-356525.02666666702:3184344.84333333] [-247258.64028571401:362145.57400000002] [-439782.88333333301:1255694.645] [-371975.26000000001:383258.23485714302] [-6177.6000000000004:1327599.04333333] [-4120.0557142857197:5115.0231428571396] [0:17614.508333333299] [-659016.33799999999:3101837.1428571399] [672.75:16931116.800000001] [-25117.9174285714:17550] [0:112155.72500000001] [-442.48228571428598:116.602] [0:1908.1666666666699] [-942:1011.2] [-0.5:4847.3333333333303] [-791729.22999999998:323117.26000000001] [0:906750] [-1148173.6499999999:192480.66500000001] [-1447112.915:42509.008333333302] [-3326.8099999999999:6738.2697142857196] [0:12995.82] [-3461:1329.5142857142901] [16:12319.166666666701] [-371975.26000000001:383258.23485714302] [-6177.6000000000004:1327599.04333333] [-54:49] [0:342.5] [-9:4] [0:11.8333333333333] [-1480003.2:429308.09999999998] [0:1171836.8999999999] [0:1] [0:1] [0:1] [0:100] [1:370] [-118681.96000000001:524049.01000000001] [-691722.33999999997:5819589.9000000004] [-35615.199999999997:194790.85000000001] [-164920.16:273997.48999999999] [-55182.730000000003:510435.54999999999] [3:18] [1:2] [0:0] [0:1] [0:1] [1:2] [1:3] [-8903.3299999999999:1176834.8500000001] [-3573070.3300000001:24752781.579999998] [2:10] [-1055.02:21212170.289999999] [-4847.04:2291842.7400000002] [-22045.91:98433844.480000004] [0:1.1699999999999999] [-3571813.5499999998:99193146.75] [0:302] [0:138] [0:680618.48999999999] [0:3] [0:424] [0:2415396.8100000001] [0:3] [0:146] [0:1888407.8500000001] [0:202] [0:4440116.71] [0:9] [-89432.809999999998:9285312.0199999996] [0:9] [0:24129464.789999999] [0:70] [0:33871384.039999999] [0:43447833] [0:15] [0:77292213] [0:40444633.210000001] [0:66] [0:372550923.68000001] [0:5] [0:9] [0:5] [0:4] [0:7] [0:49] [-168219.23999999999:20249322.18] [-96822.910000000003:687960] [0:5] [0:220] [0:39325004.759999998] [0:53] [0:345281.33000000002] [0:73] [0:162424.32000000001] [0:31] [0:642720.60999999999] [0:198] [0:95283271.879999995] [0:27] [0:7576.3299999999999] [0:31] [0:62497.169999999998] [0:59] [0:63183.889999999999] [0:71] [-13622.26:7776.4399999999996] [0:229] [-35615.199999999997:194790.85000000001] [0:16] [0:10] [0:29250] [0:16] [0:14429.610000000001] [0:1220] [0:103384764.83] [0:227] [0:51876420.670000002] [0:122] [0:2223000] [0:243] [0:15721820.300000001] [0:137] [0:43207358.020000003] [0:52] [0:7657790.0300000003] [0:74] [0:2885454] [0:1] [0:105] [0:1] [0:9194] [0:1] [0:41] [0:27] [0:22] [0:41] [0:122] [0:2223000] [0:51] [0:386100] [0:3090] [0:1] [0:2132] [0:1] [0:9] [0:70422524.099999994] [-2914634:6394] [-1:172] [-1297923.1000000001:3709575.9500000002] [-329885.01000000001:3709575.9500000002] [-1096971.0800000001:1059580.23] [-38495.629999999997:1873206.3] [0:15976.780000000001] [982.79999999999995:17539891.199999999] [0:82203.699999999997] [0:1164.6800000000001] [-1:4704] [0:1888408.0800000001] [-1649630.71:28895.810000000001] [0:11968.799999999999] [1:7451] [-38495.629999999997:1873206.3] [0:143] [0:30] [0:1153959.3] [0:1] [0:9] [0:70032028.629999995] [-2915152:5023] [0:145] [-581872.92000000004:3024994.5699999998] [-680791.31000000006:3539243.6400000001] [-457073.41999999998:1476072.03] [-18132.689999999999:1961000.73] [0:24312.599999999999] [672.75:17589312] [0:123858.64] [0:2068.0999999999999] [-1:4893] [0:1075789.8899999999] [-6545875.2199999997:281931.96999999997] [0:58500] [1:12365] [-18132.689999999999:1961000.73] [0:394] [0:33] [0:2809496.4300000002] [-1:1] [0:1] [-1:1] [-11:44] [-175:31] [-190581.20999999999:1558197.71] [-632093.54000000004:1722761.6599999999] [-194790.85000000001:145594.59] [-171098.20999999999:272252.38] [-161703.76000000001:1331679.3700000001] [-6:4] [0:1] [0:0] [-1:1] [-1:1] [-1:1] [-1:0] [-738111.81999999995:81929.130000000005] [-6206622.7400000002:9467413.0199999996] [-4:4] [-7608941.6500000004:82633557.069999993] [-1206299.55:974920.16000000003] [-18048612.989999998:16262112.220000001] [-1.1699999999999999:1.1699999999999999] [-53212306.119999997:24186428.809999999] [-4:4] [-88:96] [-410468.92999999999:613929.87] [-2:1] [-221:184] [-1734135.0800000001:2419965.1400000001] [-2:1] [-130:74] [-1486134.0600000001:1052431.6000000001] [-29:39] [-1053119.03:1465718.79] [-5:4] [-1032630.01:3331713.3599999999] [-5:2] [-17550873.829999998:561337.81000000203] [-26:22] [-12914634.33:31707000] [-27285357.550000001:21876941.969999999] [-9:9] [-39149871.950000003:12146806.48] [-2925677.1099999999:1385013.8600000001] [-17:16] [-37934829.210000001:47436814.390000001] [-3:2] [-2:3] [-3:2] [-2:1] [-2:3] [-37:36] [-20249322.18:17671371.550000001] [-687960:11700000] [-3:6] [-102:62] [-1976412.3:7929980.3200000003] [-27:28] [-292766.38:634189.58999999997] [-45:16] [-127764:166236.10999999999] [-24:17] [-412471.79999999999:852553.78000000003] [-117:176] [-69877189.150000006:19996038.649999999] [-27:17] [-7576.3299999999999:10824.309999999999] [-31:15] [-62497.169999999998:35270.230000000003] [-59:74] [-63183.889999999999:16044.91] [-70:71] [-15633.530000000001:13622.26] [-193:33] [-194790.85000000001:145562.95999999999] [-14:10] [-9:9] [-29250:10413] [-14:10] [-10140.93:2875.8800000000001] [-385:1226] [-91458900:34743277.259999998] [-142:81] [-39612806.5:25983828.620000001] [-80:88] [-980556.52000000002:1873170] [-126:74] [-14682335.699999999:18361822.449999999] [-57:48] [-6388806.3399999999:23419910.079999998] [-30:8] [-7657790.0300000003:9509151.5999999996] [-52:53] [-2885454:2175063.48] [-1:1] [-65:90] [-1:1] [-9194:4120] [-1:1] [-36:16] [-20:11] [-20:10] [-41:95] [-80:88] [-980556.52000000002:1873170] [-36:36] [-212609.69:228150] [-548:408] [-1:1] [-2131:2010] [-1:1] [-9:9] [-69434495.670000002:160605691.69999999] [-4352:4503] [-59:31] [-1615503.3600000001:1462156.1799999999] [-1615503.3600000001:1099698.0900000001] [-899794.32999999996:963896.08999999997] [-1486134.0600000001:1024815.96] [-14657.25:13056.469999999999] [-2556684.5600000001:1151260.0900000001] [-72320.490000000005:17550] [-1027.9100000000001:253.84] [-333:3741] [-1483739.8999999999:1462156.1799999999] [-1766825.02:1628017.5600000001] [-11499.879999999999:15976.780000000001] [-6403:2526] [-1486134.0600000001:1024815.96] [-130:68] [-30:11] [-1024253.1:852543.90000000002] [-1:1] [-9:9] [-69050090.340000004:214898749.30000001] [-2913842:2914391] [-32:31] [-2369818.73:2070889.8] [-2772687.9100000001:2422125.7200000002] [-1476072.03:858061.59999999998] [-1633400.73:2397549.5499999998] [-24312.599999999999:13886.959999999999] [-2822767.3300000001:21712860] [-112620.71000000001:45630] [-1881.5799999999999:565.00999999999999] [-4750:3776] [-1075789.8899999999:2002596.3100000001] [-1244290.1399999999:5497873.2199999997] [-48283.870000000003:12313.370000000001] [-7663:4313] [-1633400.73:2397549.5499999998] [-217:111] [-30:10] [-2804746.23:1070912.7]
tree_sizes=13314 16697 17071 17495 18504 18086 17828 18622 17732 18112 18126 18480 18834 18729 18694 18217 19500 17308 18407 17914 18849 18534 16961 17804 18175 18267 19018 17801 18399 17736 18934 18650 18059 18577 17631 18450 18154 18576 18259 17825 17264 18007

Tree=0
num_leaves=121
num_cat=0
split_feature=205 111 26 111 111 22 219 22 141 207 22 141 55 308 20 417 55 219 26 56 141 26 55 141 26 111 26 417 495 219 428 26 312 22 175 410 277 216 620 111 470 141 141 268 481 22 176 203 198 157 230 55 417 770 26 356 21 410 60 767 268 174 462 417 228 26 166 500 604 400 626 481 612 176 496 111 157 607 212 99 131 111 218 647 111 474 491 319 108 292 61 290 324 7 619 712 329 465 530 422 480 276 626 504 586 165 632 291 207 139 776 5 0 0 7 129 5 157 328 582
split_gain=49328.6 19559.8 8453.24 2460.02 2171.07 1787.31 1220.78 1051.28 813.408 757.916 424.124 468.441 384.81 357.492 355.768 305.092 260.855 201.435 177.44 174.898 253.099 180.285 129.65 178.326 141.269 89.7351 71.4552 54.3926 47.6193 40.8283 32.0967 29.5011 31.8283 28.2416 27.0684 24.1393 21.4788 19.3525 18.8305 13.8459 10.1989 10.1498 9.91731 9.74505 8.12877 7.77088 7.48325 7.45558 7.93894 7.05826 6.68302 5.28017 6.2261 5.51185 5.16871 5.50686 3.57462 3.48331 5.88873 4.03137 3.08354 3.04458 2.40338 3.05073 2.28808 2.77345 2.12335 1.87505 1.75053 1.65404 1.81518 1.61695 2.13944 1.50679 2.43916 1.32904 1.25063 1.19576 0.849051 0.720437 0.709714 0.799381 0.678783 0.874573 0.803033 1.01532 0.669818 0.651754 0.703822 0.496832 0.73093 0.481101 0.439002 0.300104 0.235041 0.206989 0.192028 0.189512 0.174386 0.162672 0.159627 0.141121 0.139999 0.105997 0.102985 0.223204 0.0856581 0.0813045 0.0210942 0.0570887 0.0187554 1.13687e-13 2.84217e-14 2.84217e-14 2.84217e-14 2.84217e-14 1.42109e-14 1.42109e-14 1.42109e-14 1.42109e-14
threshold=-0.15042857142857149 19.500000000000004 -1187.5399999999997 10.500000000000002 34.500000000000007 2565.5400000000004 88.451793436293073 1565.3100000000002 2949.3200000000002 -1.0000000180025095e-35 3734.4100000000003 2949.3200000000002 1.0000000180025095e-35 205.09600000000003 -1.0000000180025095e-35 30.517441860465102 1.0000000180025095e-35 -110.44428571428598 8240.2750000000033 1.0000000180025095e-35 1860.6450000000002 16713.720000000005 1.0000000180025095e-35 1860.6450000000002 12149.110000000002 60.500000000000007 1109.3950000000002 30.555212355212351 50220.790000000008 -968.24687541528385 1.0000000180025095e-35 12149.110000000002 400.10000000000008 5072.0750000000007 -50.557418918918792 2.3666666666666654 -0.27142857142857141 0.91666666666666663 -7581.3499999999995 90.500000000000014 1705.2750000000003 8432.2250000000022 784.36500000000012 32157.3966666667 7.5000000000000009 196.06000000000003 -495.53349999999995 -1848.9029999999998 2.3666666666666654 672.75000000000011 55781.943333333351 1.0000000180025095e-35 30.555212355212351 -0.10999999999999949 16713.720000000005 0.77500000000000013 3.5000000000000004 2.9166666666666656 245.74000000000004 1.0000000180025095e-35 32157.3966666667 1311.5722500000004 1948.2500000000002 30.555212355212351 0.91666666666666663 242.84500000000003 33.083333333333357 18.500000000000004 11553.750000000002 1244.2 2919.1500000000005 6.5000000000000009 1.0000000180025095e-35 -788.34199999999998 2.5000000000000004 108.50000000000001 3726.4500000000003 186732.00000000003 14.450000000000001 5.5000000000000009 1071.5000000000002 78.500000000000014 11.633333333333352 89530.905000000013 179.50000000000003 41.500000000000007 5272.0050000000001 -0.15714285714285697 4738.5000000000009 6962.1908333333358 5.5000000000000009 0.55000000000000016 0.91666666666666663 575.70000000000016 50953.790000000008 1757.4200000000003 15719.718857142851 1.0000000180025095e-35 4.5000000000000009 5.5500000000000007 745.6350000000001 151.24083333333354 15403.050000000001 1002.9950000000001 -1580.4999999999998 1.0000000180025095e-35 -768.57999999999981 -2006.5421428571447 -15189.263665933398 -942.49999999999989 11933.625000000002 55.500000000000007 25370194.500000004 30055456.000000004 1004.8500000000001 -605.25499999999988 39.500000000000007 941.85000000000014 1.7083333333333353 8.5000000000000018
decision_type=8 2 2 2 2 2 8 2 10 10 2 10 2 10 2 10 2 8 2 2 10 2 2 10 2 2 2 8 8 8 10 2 8 2 10 10 10 8 10 2 10 10 8 10 10 2 10 8 10 10 10 2 8 8 2 10 2 10 2 10 10 10 8 10 10 2 8 10 10 8 10 10 10 10 10 2 10 10 10 2 8 2 8 10 2 10 10 10 2 8 2 10 10 2 10 8 10 10 10 8 10 10 10 8 8 10 10 10 8 10 8 2 2 2 2 8 2 10 10 8
left_child=-1 2 3 -2 7 6 9 8 13 14 11 12 17 -3 -4 -11 18 -6 -7 20 21 -9 23 24 -12 29 -19 -10 -20 -13 41 32 -25 -22 -26 -36 -34 50 45 47 46 -27 54 56 -37 -31 -38 -33 57 -35 -24 52 76 -54 55 -39 66 58 59 -49 -21 -55 63 -56 65 -42 -41 -67 71 -59 92 72 77 89 75 -75 99 80 101 82 81 -44 83 84 86 -86 -73 88 -88 90 103 -53 -71 -83 102 -64 98 -94 104 -43 -91 -77 107 -68 105 116 -82 -84 109 119 111 -106 114 118 -102 -103 -89 -113 -108 -109
right_child=1 4 5 -5 10 16 -8 19 27 15 22 25 -14 -15 -16 -17 -18 26 28 60 33 -23 37 31 34 30 -28 -29 -30 38 -32 39 36 49 35 44 40 42 -40 43 64 51 68 -45 -46 -47 -48 48 -50 -51 -52 91 53 61 62 -57 -58 69 -60 -61 -62 -63 95 -65 -66 67 73 -69 -70 70 -72 79 -74 74 -76 78 -78 -79 -80 -81 106 93 94 -85 85 -87 87 96 -90 100 -92 -93 97 -95 -96 -97 -98 -99 -100 -101 112 115 -104 -105 110 -107 113 108 -110 -111 -112 117 -114 -115 -116 -117 -118 -119 -120 -121
leaf_value=2.8055984856084866 -1.3457794872568085 -4.3488173344361885 -2.661460620299211 -3.3202935038535211 -4.1647427361502078 -4.3397136280296724 -4.848915775557086 -4.2981407315993518 -4.9784904169481363 -4.3391430805473989 -4.7573810581726557 -4.8945548091971105 -5.214205686856566 -3.4465699051437197 -3.578690067457623 -3.6015031950387399 -5.2375006874688488 -4.5828804559313392 -4.6913086420004202 -5.2095892169857461 -4.9397191474164943 -4.920876054524288 -5.122204689850764 -5.0306841387314352 -5.2889359818749915 -5.1723915997685985 -4.9879279455429959 -4.6438214602747472 -5.0116528220756607 -5.1006197322124152 -5.0889854844214577 -5.169259132418599 -5.0630061696864272 -5.0867690969381592 -4.9658424872579232 -5.1008869223134132 -5.2482047353441379 -5.2621357157960613 -5.0106555007563163 -5.2534158006863487 -5.2083181792884758 -5.2722947366104194 -5.2690263738323253 -5.1739697572290719 -5.229645949966212 -5.2183029259439229 -5.129815973307509 -5.2479060278985337 -5.1529756581067163 -5.2085531746698583 -5.2510342838133397 -5.3108402058268336 -5.1505144244097547 -5.19992607679323 -5.2924293603742827 -5.1544700596651323 -5.2398844044278041 -5.2341840169183005 -5.287115741391462 -5.157707325914644 -5.2893240101989685 -5.272991134386273 -5.3134183250998586 -5.2266408506821325 -5.3016233626725437 -5.2465978814528897 -5.2980087777199021 -5.3087739059437276 -5.2620738117428925 -5.2782035574690687 -5.2415895263240513 -5.2809789131042155 -5.2544257858758545 -5.261503770137554 -5.2332899984263737 -5.299281752916146 -5.3042178774672868 -5.2680397589940533 -5.2728985172883487 -5.2839266006375079 -5.3035765429400872 -5.3134183250998586 -5.3052622251037089 -5.272212363655151 -5.2571890853757326 -5.3083323894122927 -5.3092822166212876 -5.3134183250998586 -5.2705930947720807 -5.3002066516144044 -5.275618001033096 -5.2852287693165794 -5.3134183250998586 -5.2879629386143741 -5.2949407684135785 -5.2929765159535336 -5.2957142176156706 -5.2930745829586519 -5.2983849468461335 -5.2517408136376984 -5.3134183250998586 -5.3134183250998586 -5.3021621930571792 -5.3134183250998586 -5.3134183250998586 -5.2949775603592926 -5.3134183250998586 -5.3134183250998586 -5.3134183250998586 -5.3031348033179002 -5.3083291775808741 -5.3134183250998586 -5.3134183250998586 -5.3134183250998586 -5.3134183250998586 -5.3134183250998586 -5.3134183250998586 -5.3134183250998586 -5.3134183250998586 -5.3134183250998586
leaf_weight=50.624144360423088 88.311634374316782 51.069370758254081 50.392124745063484 74.020487831905484 52.342342540621758 70.828652092255652 70.157676773145795 58.224350126925856 53.552606332115829 86.085501192137599 79.507435103878379 67.549025227315724 94.212454013992101 62.112244312185794 58.105205028317869 61.240603529848158 66.551968479994684 61.899037153925747 61.72345483629033 53.527523127384484 54.756599351298064 60.494378605857491 50.204000724479556 64.33210636023432 61.911578703206033 89.565793447662145 50.448561813216656 73.568990360014141 56.926295111421496 60.544544969685376 87.797428707126528 92.876774260308594 49.43269269913435 52.386238083709031 61.052479537203908 68.941142140422016 61.980557472910732 78.817647395655513 69.254681999329478 84.204262013081461 62.494762827642262 49.144236028194427 68.288979246281087 50.724476876668632 57.296272119507194 87.646929565817118 75.675978111103177 57.841831458266824 51.959823885466903 72.270935341715813 52.643340750131756 97.987473795190454 57.377792485058308 62.32545131072402 96.288087812252343 49.269651972688735 92.757629111409187 51.012933531776071 76.836075543891639 69.762616546358913 73.393407994881272 87.483888838905841 87.690825134515762 84.42373990919441 85.671628504060209 71.831979545764625 49.181860807817429 54.392893107607961 63.962129321414977 57.390334071591496 49.238297984469682 62.300368116702884 81.363590974826366 72.992076989728957 53.596501894295216 71.480814912356436 82.373189285863191 72.37126808706671 56.111091484781355 85.659086912870407 77.005387061275542 73.098680534400046 92.920669827144593 55.176742734387517 49.420151095837355 49.670982973184437 61.077562701422721 55.552990551106632 58.989387304987758 76.484910911414772 80.197222733404487 89.615959813352674 70.985421948134899 49.620816598180681 54.687620566692203 49.43269268842414 57.076794221997261 49.670982974115759 67.216672957409173 49.150506825651973 51.884574310854077 56.706817197613418 89.772729737684131 67.705795121379197 566.91140205133706 68.495915543753654 72.001291060820222 51.382910551503301 1073.616882183589 49.131694432348013 49.639628987759352 53.721917829476297 55.063868385739625 85.721794879063964 139.37473394162953 65.247642700560391 52.279634521342814 49.23829798027873 53.577689498662949 63.924504535272717
leaf_count=8073 14083 8144 8036 11804 8347 11295 11188 9285 8540 13728 12679 10772 15024 9905 9266 9766 10613 9871 9843 8536 8732 9647 8006 10259 9873 14283 8045 11732 9078 9655 14001 14811 7883 8354 9736 10994 9884 12569 11044 13428 9966 7837 10890 8089 9137 13977 12068 9224 8286 11525 8395 15626 9150 9939 15355 7857 14792 8135 12253 11125 11704 13951 13984 13463 13662 11455 7843 8674 10200 9152 7852 9935 12975 11640 8547 11399 13136 11541 8948 13660 12280 11657 14818 8799 7881 7921 9740 8859 9407 12197 12789 14291 11320 7913 8721 7883 9102 7921 10719 7838 8274 9043 14316 10797 90405 10923 11482 8194 171209 7835 7916 8567 8781 13670 22226 10405 8337 7852 8544 10194
internal_value=-5.05919 -5.10121 -3.85811 -2.24612 -5.20718 -4.30772 -3.91538 -4.76858 -4.34625 -3.65937 -5.24336 -5.111 -4.80701 -3.85368 -3.15268 -4.03252 -4.80724 -4.57406 -4.65612 -5.00734 -4.9016 -4.61546 -5.26871 -5.22452 -5.05058 -5.18684 -4.76476 -4.78481 -4.845 -5.06611 -5.23255 -5.24963 -5.19715 -5.09095 -5.14413 -5.09626 -5.22036 -5.29637 -5.1194 -5.26538 -5.23923 -5.2515 -5.29911 -5.28217 -5.15933 -5.17022 -5.18312 -5.23533 -5.2468 -5.15737 -5.18815 -5.26381 -5.24698 -5.21709 -5.26356 -5.22072 -5.28728 -5.2569 -5.23186 -5.19859 -5.2557 -5.24259 -5.28083 -5.26169 -5.26738 -5.25184 -5.29177 -5.27339 -5.30349 -5.27529 -5.28452 -5.30424 -5.29267 -5.29537 -5.28319 -5.29149 -5.28126 -5.29831 -5.30026 -5.30675 -5.30288 -5.29093 -5.30744 -5.30336 -5.30468 -5.28283 -5.30649 -5.30788 -5.29027 -5.30419 -5.29419 -5.29861 -5.29639 -5.30313 -5.31119 -5.30605 -5.30995 -5.30504 -5.3108 -5.26202 -5.31029 -5.30819 -5.31182 -5.30693 -5.31173 -5.30625 -5.31079 -5.31247 -5.31301 -5.31035 -5.31307 -5.31342 -5.31342 -5.31342 -5.31342 -5.31342 -5.31342 -5.31342 -5.31342 -5.31342
internal_weight=0 9475.88 744.344 162.332 8731.53 582.011 325.981 665.357 240.303 255.823 8066.18 1296.72 258.902 113.182 108.497 147.326 256.03 164.69 189.478 425.053 298.133 118.719 6769.46 2605.81 328.709 1037.82 112.348 127.122 118.65 284.995 752.822 2277.1 525.813 179.414 249.201 187.29 461.48 4163.65 217.446 1751.29 412.048 665.024 4060.8 1123.71 126.237 148.191 137.657 627.575 534.698 124.657 102.847 575.458 387.855 207.187 445.923 128.087 1072.99 482.738 204.441 127.604 126.921 149.809 317.835 180.712 274.391 188.72 980.232 126.225 3614.88 278.298 227.285 3550.91 633.049 896.028 376.135 322.538 180.668 551.686 249.546 2917.86 479.315 191.008 2832.21 1356.77 1301.59 99.0911 1202.5 1140.2 120.067 519.893 197.085 187.603 178.047 122.719 1475.44 137.124 1020.13 120.656 963.056 98.2947 322.808 193.435 1420.75 116.888 895.84 176.329 288.306 1330.98 1238.06 164.439 719.511 669.872 246.323 211.301 191.259 121.954 107.833 102.96 125.579 115.307
internal_count=1519185 1511112 118700 25887 1392412 92813 51984 106104 38321 40796 1286308 206787 41287 18049 17302 23494 40829 26263 30216 67783 47543 18932 1079521 415547 52419 165500 17916 20272 18921 45448 120052 363128 83851 28611 39740 29867 73592 663974 34676 279277 65709 106051 647573 179198 20131 23632 21952 100079 85268 19879 16401 91768 61851 33040 71111 20426 171109 76982 32602 20349 20240 23890 50685 28818 43757 30095 156317 20129 576462 44380 36245 566262 100952 142889 59982 51435 28811 87977 39795 465310 76436 30460 451650 216363 207564 15802 191762 181827 19147 82907 31429 29917 28393 19570 235287 21867 162680 19241 153578 15675 51478 30847 226566 18640 142859 28119 45976 212250 197432 26223 114740 106824 39281 33696 30500 19448 17196 16419 20026 18388
is_linear=0
shrinkage=1


Tree=1
num_leaves=148
num_cat=0
split_feature=25 206 32 351 37 26 525 179 1 22 633 8 77 131 495 358 305 196 478 266 525 681 624 461 11 12 10 495 60 37 305 200 358 10 26 170 358 8 292 1 32 446 12 377 200 736 198 219 12 474 266 268 12 292 35 279 141 20 401 5 681 26 767 307 217 409 12 152 120 736 77 443 170 410 314 144 418 400 421 1 292 389 382 32 267 196 26 203 497 553 474 656 686 308 196 267 681 680 127 5 175 681 491 775 268 478 311 86 728 733 282 357 203 144 611 29 26 26 622 292 142 470 525 131 500 313 268 500 615 636 99 390 500 470 500 28 354 497 217 624 476 354 267 151 217 622 292
split_gain=22031.2 53403.2 1239.42 605.16 466.468 410.381 643.099 404.463 226.038 221.107 207.351 164.955 152.676 142.717 77.6273 70.5815 69.4308 60.2092 56.2827 50.3362 44.2333 43.5019 41.9813 40.3803 44.1213 35.5415 34.1201 31.1314 27.7524 27.5589 26.3887 24.6944 24.6424 26.9777 17.4052 15.3694 17.1311 14.196 13.6775 13.3853 12.7537 9.40872 9.39596 9.14854 8.00839 6.6526 6.08225 5.88358 5.68894 5.21491 5.043 4.98638 4.67827 4.66745 4.24272 5.59174 3.989 4.17606 3.93594 3.84265 3.60055 6.25609 3.37821 3.30692 2.77616 2.22595 2.18086 3.10611 2.32178 1.74944 1.62006 1.60721 1.54808 1.57281 1.35006 1.21982 1.18409 2.17433 1.16279 1.14196 1.03064 1.00122 1.13347 0.924896 0.804987 0.641727 0.564955 0.764053 1.92558 0.885251 0.615308 0.516912 0.498457 0.723507 0.466344 0.357409 0.336078 0.241093 0.233109 0.180217 0.358026 0.169807 0.150706 0.135663 0.417684 0.131502 0.118132 0.0860019 0.0756674 0.0644041 0.0248053 0.0224304 0.0212475 0.0203589 0.0138364 0.00042941 3.85344e-06 2.91957e-06 8.7305e-07 7.36891e-07 7.17307e-07 4.57966e-07 4.19578e-07 2.08605e-07 1.65186e-07 2.12188e-07 1.42497e-07 1.35342e-07 9.17059e-08 8.1185e-08 7.868e-08 5.8407e-08 4.46079e-08 3.0175e-08 2.31385e-08 1.90213e-08 1.85332e-08 1.64064e-08 1.10384e-08 8.7409e-09 5.78625e-09 5.39026e-09 5.37881e-09 4.32189e-09 1.94427e-09 1.75149e-09 4.66628e-10
threshold=1.0000000180025095e-35 1.0000000180025095e-35 3054.8500000000008 0.12109634551495001 21817.475000000002 -1187.5399999999997 1.0000000180025095e-35 -0.12857142857142848 202004.50000000003 5072.0750000000007 -991.89499999999987 18209.120000000006 2.5000000000000004 341.50000000000006 1.0000000180025095e-35 1.2250000000000003 0.092857142857142874 -1988.4508333333349 132.60500000000005 0.91666666666666663 1.0000000180025095e-35 -52281.864999999991 2.5000000000000004 30.517441860465102 323.74500000000006 6.5000000000000009 -600.75499999999988 59667.305000000008 135.40000000000003 14288.165000000003 0.12857142857142853 1.0000000180025095e-35 10.225000000000001 -123.81499999999998 1.0000000180025095e-35 2094.0360000000005 4.2250000000000005 36496.605000000003 1.0000000180025095e-35 202008.50000000003 7366.0900000000011 1.0000000180025095e-35 6.5000000000000009 0.81913890634820863 282.21416666666659 -1.0000000180025095e-35 2.0833333333333353 88.451793436293073 7.5000000000000009 64.500000000000014 1.0833333333333353 32157.3966666667 6.5000000000000009 1.0000000180025095e-35 1.0000000180025095e-35 -13.013142857143299 52901.515000000007 -122.40499999999999 -10.266303986710948 32.500000000000007 -115396.28499999999 137930.20500000005 13807.135000000002 171.40171428571401 -0.14575289575289596 0.72857142857142854 6.5000000000000009 1.0000000180025095e-35 53572.640000000007 -7.4999999999999991 6.5000000000000009 -1.0000000180025095e-35 697.12333333333356 3.2916666666666656 0.91666666666666663 38912.835000000006 1496.9166666666654 1.0000000180025095e-35 -0.29864864864864843 202003.50000000003 4592.3658333333306 30.555212355212351 13.083333333333352 13470.775000000001 -5960.063571428569 -44.557499999999997 27494.055000000004 -848.18771428571347 7.5000000000000009 5.5000000000000009 56.500000000000007 -7.4999999999999991 -1.0000000180025095e-35 1269.8008333333353 -1016.4758333333349 4865.7904285714312 93513.340000000011 -1.4999999999999998 1.0000000180025095e-35 61.500000000000007 35.521079734219256 8759.5350000000017 6791.4000000000005 9714.7750000000015 83813.827500000014 892.94000000000017 -255.20128571428549 11.500000000000002 -1.0000000180025095e-35 1296.3600000000004 2.3666666666666654 -7.097297297297299 8839.4154285714631 388.21000000000009 29390.885000000006 975.19500000000005 12149.110000000002 71002.880000000019 2235.5000000000005 6962.1908333333358 21526.170000000002 589.29000000000008 12105.715000000002 1071.5000000000002 11.500000000000002 -0.15714285714285697 46868.428333333359 16.500000000000004 118025.10500000003 743.52500000000009 1.5000000000000002 -1628.4166666666649 11.500000000000002 7130.1750000000002 13.500000000000002 19.500000000000004 0.70833333333333359 1.5000000000000002 -0.22475083056478448 5.5000000000000009 1486.0300000000002 0.18333333333333354 -5960.063571428569 -53626.439999999995 0.68588039867109662 2944.5000000000005 4592.3658333333306
decision_type=2 10 2 10 2 2 8 10 2 2 10 2 2 8 10 10 10 10 10 8 10 8 10 10 2 2 2 8 2 2 10 10 10 2 2 10 10 2 10 2 2 10 2 10 10 8 8 8 2 10 10 10 2 10 2 10 10 2 10 2 8 2 8 10 8 8 2 10 10 8 2 8 8 8 8 10 8 10 10 2 10 10 8 2 10 10 2 10 8 10 10 10 10 10 10 10 10 8 10 2 8 10 10 10 10 8 8 2 8 8 10 8 10 8 10 2 2 2 10 10 10 10 10 8 8 10 10 10 10 10 2 8 8 8 10 2 10 10 8 8 8 10 10 10 10 10 10
left_child=1 4 3 5 10 12 7 -7 25 16 -1 13 31 -10 -15 -14 20 -17 -16 26 23 -8 -18 40 29 -9 48 -13 30 32 37 -2 -25 41 -23 36 -27 39 -29 42 -4 -34 -28 -41 -26 -6 50 -46 49 63 51 -36 -42 -44 55 -30 57 94 -39 -52 61 -21 69 65 -57 75 67 74 86 -54 -50 -55 73 -61 84 81 77 -72 -49 -71 -56 109 -83 -66 -62 -74 87 88 -68 90 98 -86 93 -78 102 113 97 -88 -89 103 -101 117 115 106 -105 -94 -99 108 -108 -11 122 -100 116 -93 -82 -22 -107 -87 -119 -118 -117 -113 -110 -115 125 -124 -123 -121 -125 131 133 -127 -128 134 138 137 140 -133 -126 141 -134 145 -136 -144 146 -139 -145
right_child=2 -3 9 -5 45 6 21 8 11 19 -12 27 15 14 18 17 22 -19 -20 60 56 34 -24 24 44 35 28 38 54 -31 -32 -33 33 -35 46 -37 -38 58 -40 43 52 -43 53 -45 47 -47 -48 78 70 -51 59 -53 62 71 80 64 -58 -59 -60 72 66 -63 -64 -65 83 -67 68 -69 -70 79 76 -73 85 -75 -76 -77 92 -79 -80 -81 114 82 -84 -85 91 101 96 89 -90 -91 -92 95 105 -95 -96 -97 -98 99 111 100 -102 -103 -104 104 -106 112 107 -109 110 -111 -112 121 -114 123 -116 120 119 118 -120 127 -122 126 124 128 130 129 132 -129 -130 -131 -132 135 136 -135 142 -137 -138 139 -140 -141 -142 -143 143 144 -146 -147 -148
leaf_value=0.4961754986566605 -0.18922198748096425 -3.4816313725471439 -0.10119955209721022 0.42776756769183188 -0.11563308299095176 0.48794074384180808 0.064031816133544417 0.038745794052138578 0.037639619579989583 -0.25399506340402683 0.1206048583113345 0.074911309344979929 -0.097372902007880818 0.17316043800047909 0.47422530226337867 -0.036460658218986267 -0.086097757073049397 0.14920133413214615 0.24640064588321081 -0.12041572220638665 -0.25495173673067095 -0.038767389611128383 0.13722753729049433 -0.069518033487670217 -0.074872957286520561 -0.12156402083114122 -0.043375878462993844 -0.011347121425131043 -0.11031292039325463 -0.16019470446351849 0.061231145109592142 -0.12595788376775749 -0.082919164536654225 0.16031265606339518 -0.099227067546397152 -0.17382335658740478 0.0076669274701803292 -0.15553954171844453 -0.17009776814258465 0.050954269595139441 -0.1392553788596492 0.053222299862642486 -0.12052233227571676 -0.099735256009187687 -0.12155896824307472 -0.19254162908473416 -0.13310716888769503 -0.19487494050178708 -0.20144806521241257 -0.13254218544846325 -0.16306640609935474 -0.20683621819906406 -0.18296801914186753 -0.16953014565473762 -0.21003890401988132 -0.16167510796994514 -0.14450138866774787 -0.15894780452246893 -0.23672466631594338 -0.17542209713483128 -0.20604147166904568 -0.24565685619085303 -0.1472959157674627 -0.14123244743617805 -0.20311785544155389 -0.17542443272425698 -0.18439804515928984 -0.1675095065053345 -0.19305172741350898 -0.25336073490495237 -0.17393070325452378 -0.23773698576577809 -0.21546491515111299 -0.23096629550968936 -0.19190594031532801 -0.19643158008084693 -0.24913033713610266 -0.25393774172026279 -0.24464568365646594 -0.21055115582524769 -0.25395026530255588 -0.18558855734095239 -0.24006463087594276 -0.24941773638934811 -0.21725323792009496 -0.25399296935498761 -0.23480331320547487 -0.2353594372775468 -0.2500186417107515 -0.21119825640013123 -0.21903210798263176 -0.24745389416975819 -0.2387848872057943 -0.20426600627016811 -0.2208963772508416 -0.22873949914283326 -0.23142689698504471 -0.24109086097389273 -0.24747966375564348 -0.25388156252949917 -0.22119493209984398 -0.23498949491949583 -0.23725778859649049 -0.22188511181316745 -0.25387714123597716 -0.25400033927628618 -0.24333126306748784 -0.24114007881319802 -0.25390336658589036 -0.24174037416593935 -0.24735163397188284 -0.25391111878203521 -0.2475934973193733 -0.25390457960519053 -0.24763686959190501 -0.25397815296379184 -0.2539338039700183 -0.25393622912850211 -0.25388383169081408 -0.25391032092119686 -0.25393065864763359 -0.2538941765083223 -0.25389683261281021 -0.25387788481923235 -0.25387321208112329 -0.25388704724723948 -0.2538838251531822 -0.25389160956790818 -0.25389271563248333 -0.2538897761040767 -0.25388465897623019 -0.2538803629233406 -0.25387275764462552 -0.25387939524499115 -0.25387397010122298 -0.2538816781607322 -0.25388079982056899 -0.25387366318299809 -0.25387761658287644 -0.2538775466186739 -0.25387672394487315 -0.25387608068343287 -0.25387323727081068 -0.25386904505501168 -0.2538713488184266 -0.25387148337214183 -0.25387017243023352
leaf_weight=146.3413956691511 770.58531610388309 434.33070268016309 150.86546487687156 185.34368253592402 121.7502337358892 172.40864221611992 49.206555082462728 204.28604604955763 187.42293147183955 81.397598024923354 261.36928842682391 154.66405305964872 453.35447389958426 191.25904574804008 169.16268702642992 258.84654190856963 109.91460265871137 195.78659168072045 117.11084691854194 43.525279657449573 41.697840753011405 49.920647657010704 105.07006248179823 176.83279421553016 56.376579427160323 137.05458713602275 52.738483147695661 69.936886819079518 56.267973586916924 81.568687932100147 50.402758191339672 805.21486688312143 67.672520976513624 93.353175651747733 51.699822525028139 105.98676422191784 125.32355023687705 79.511285659857094 68.618076050654054 50.501895675435662 92.334485246799886 62.148252154234797 77.496243372559547 52.379707877058536 64.257290729321539 174.87478384468704 89.580985534004867 70.885629191529006 81.481792201288044 68.640066426247358 69.401200911495835 58.663929716683924 63.039485062472522 41.872471295762807 69.00805478869006 68.424437119159847 41.543806013185531 45.075967863202095 73.191397504881024 57.366009876132011 42.214307749643922 61.306880710180849 52.42067507840693 42.554694342426956 54.603225702885538 70.57930967444554 50.897004507947713 52.609832993708551 53.971177927218378 82.351007457822561 44.19535005511716 46.56777320895344 45.927138584200293 75.162793502211571 44.82285881601274 70.278937474358827 52.577638229820877 42.547466916497797 51.883615836966783 76.900523561052978 49.388807899784297 44.126066082622856 54.457136641722172 55.54355374770239 41.366687611211091 41.509794080164284 66.18840814800933 54.552793411072344 64.964542394969612 47.341533619910479 43.479882561601698 39.120347986929119 49.977993815205991 40.694931464735419 45.600703031755984 50.221133884508163 67.508365471381694 59.252597330603749 39.445871256757528 47.887455662246794 38.642662349157035 40.023626152891666 45.384468882344663 39.47976338211447 76.529709901195019 42.049790145363659 47.891633610241115 39.646800637245178 42.970457209274173 41.23272876162082 38.70187128521502 38.858112411107868 39.965374599676579 51.25536461500451 40.173517463728786 40.476351240184158 76.410742963664234 41.508406263310462 39.707241472788155 48.289434360340238 40.70055637229234 48.021274851169437 51.213483113329858 55.703348791692406 70.578188716899604 39.071054350584745 76.983177697751671 50.437482870183885 50.94179618684575 42.169169981498271 46.137504990212619 39.03229201817885 58.340337147470564 52.438006130047143 44.947914816439152 39.534200715366751 40.177218907047063 46.46522773662582 74.794894625432789 48.871352925430983 39.275902458466589 39.345981535501778 40.9837413020432 48.828076512552798 69.487885305192322 47.646877821534872 45.049293592106551
leaf_count=8499 5584 8096 14172 14208 9540 13639 8770 13755 11720 15535 14331 13379 12450 9276 10711 12226 5447 9612 9930 8671 7537 6467 14710 14743 6766 7506 9344 7705 10689 12312 9070 11597 7411 10724 7097 11844 10384 14730 10488 8723 11876 9140 13525 9527 9970 13282 15365 11570 15270 13063 13223 10990 10984 7889 13198 13058 8023 8123 13922 9942 8396 12292 8413 8089 10211 13306 10297 10187 10789 12515 8544 8718 8882 13341 8968 13736 10287 8310 9118 10781 9560 8226 10419 10701 8308 8028 13382 11064 13010 9569 8794 7832 9694 8004 8576 10119 13716 12024 7993 9717 7839 7926 8859 8025 15578 7921 9721 8030 8586 7851 7867 7794 7918 10220 7908 7733 14928 8109 8045 9596 7994 9672 10268 11341 14410 7894 15597 10161 10252 8501 9337 7927 11918 10655 9173 8020 8157 9484 15220 9945 7999 8016 8367 10001 14208 9741 9219
internal_value=0 -1.27851 -0.113318 -0.0203089 0.0800533 -0.037269 0.0369307 0.121116 0.0798023 -0.18765 0.25541 0.154848 -0.109351 0.224452 0.297772 -0.0268402 -0.111453 0.0434942 0.381025 -0.216772 -0.130189 -0.165114 0.0230486 -0.10916 -0.0706738 -0.0457658 -0.1861 -0.0029987 -0.150592 -0.0263675 -0.112558 -0.156895 0.000922363 0.0567361 -0.182186 -0.0926338 -0.0598375 -0.131028 -0.0899669 -0.100909 -0.163034 -0.017745 -0.136262 -0.0257657 -0.158334 -0.160974 -0.193913 -0.183493 -0.217388 -0.196927 -0.204368 -0.156427 -0.188449 -0.165784 -0.201315 -0.179757 -0.217169 -0.228828 -0.194452 -0.217254 -0.239537 -0.193658 -0.204984 -0.207849 -0.201639 -0.215678 -0.241434 -0.224999 -0.244773 -0.218588 -0.234418 -0.205444 -0.228276 -0.206924 -0.23305 -0.225425 -0.239933 -0.213174 -0.215909 -0.232689 -0.233241 -0.234636 -0.215681 -0.226465 -0.238625 -0.241837 -0.246132 -0.239628 -0.221192 -0.244019 -0.247558 -0.243391 -0.24573 -0.229556 -0.243557 -0.247764 -0.248832 -0.249681 -0.250692 -0.250428 -0.239284 -0.249278 -0.249698 -0.251212 -0.24299 -0.250642 -0.252067 -0.252683 -0.253133 -0.249875 -0.253618 -0.253145 -0.252947 -0.252613 -0.251118 -0.254293 -0.253932 -0.253938 -0.253911 -0.253915 -0.253954 -0.253886 -0.253879 -0.253891 -0.253878 -0.253882 -0.253882 -0.253901 -0.253885 -0.253879 -0.253875 -0.253878 -0.253879 -0.253874 -0.253873 -0.253877 -0.253876 -0.253876 -0.253875 -0.253875 -0.253874 -0.253874 -0.253871 -0.253871 -0.25387 -0.253873 -0.25387
internal_weight=0 1138.67 11441.1 5082.04 704.336 4896.7 2412.91 1703.23 1530.83 6359.01 407.711 958.175 2483.79 664.956 477.533 907.988 1758.35 454.633 286.274 4600.66 1543.37 709.678 214.985 1242.89 724.979 572.651 1959.97 293.219 918.072 481.575 524.662 1575.8 400.007 223.174 660.472 368.365 262.378 474.259 138.555 321.557 517.912 129.821 218.675 102.882 243.403 296.625 610.551 187.027 1041.89 473.267 520.97 110.364 367.046 165.936 393.41 234.839 300.48 258.936 152.703 410.606 2640.69 104.832 274.712 404.626 178.571 362.072 2535.86 428.256 2107.6 222.291 568.628 88.4402 341.205 132.529 375.646 291.492 487.146 86.7428 122.769 159.252 158.57 221.214 98.5832 110.147 330.823 208.676 2053.63 602.338 115.862 486.476 439.135 288.609 400.403 93.2726 213.86 247.242 1451.29 1383.79 395.655 1317.6 86.5301 162.749 168.259 1231.07 116.009 307.131 1115.06 1055.81 1016.16 122.63 968.267 341.102 257.153 197.021 89.5623 122.875 217.187 122.725 81.2156 175.138 81.1769 301.656 929.566 157.901 886.595 393.35 262.798 98.7269 106.645 342.136 493.246 299.967 214.777 447.108 394.67 260.896 137.793 221.362 145.373 182.329 97.6162 133.458 249.297 204.349 163.365 94.1121 93.8774
internal_count=1519185 53748 1465437 322199 45652 307991 256522 130337 116698 1143238 22830 73209 51469 41637 29917 34288 237497 21838 20641 905741 217340 126185 20157 160495 91754 43489 371631 31572 170773 54330 95448 17181 42018 27275 117415 29734 17890 86378 18193 57726 68741 16551 39476 18250 37424 22822 110948 30658 200858 90225 95583 18087 54569 30132 75325 44659 56845 48822 28652 77496 534110 20963 42693 77162 33970 69073 513147 85623 427524 34280 110633 16607 64273 23283 75436 55767 95363 16854 20688 23296 30666 42031 18645 20912 66468 40990 416735 121864 23307 98557 88988 58072 78509 18291 40699 49764 294871 281155 80194 267773 17556 32108 32123 250217 23603 60218 226614 214590 206560 23386 196839 69130 50524 39645 17468 23264 42606 24182 16154 34685 15727 61137 188972 31813 180386 79796 53343 19757 21593 69528 100590 61027 43671 91253 80598 53133 28074 45113 29630 37186 19917 27241 50968 41795 33428 19225 19220
is_linear=0
shrinkage=0.252623


Tree=2
num_leaves=151
num_cat=0
split_feature=55 229 31 637 227 330 26 26 196 26 378 205 737 629 170 76 205 10 176 417 736 175 170 171 31 205 198 10 138 306 433 12 528 151 611 127 326 278 111 324 111 205 292 151 352 466 782 225 330 475 330 433 11 651 481 11 117 135 142 24 142 26 489 56 466 422 457 396 208 417 608 12 621 457 433 570 428 432 396 600 448 327 330 151 531 649 150 280 186 165 274 454 178 568 289 709 377 60 366 212 31 456 425 86 586 217 608 528 323 327 470 300 142 710 113 354 536 200 178 111 151 141 29 200 200 442 212 26 525 489 600 525 26 26 144 98 204 31 265 330 196 620 396 31 20 600 108 470 500 360
split_gain=1530.78 633.856 764.044 678.409 341.757 355.307 216.216 202.38 150.273 129.798 118.58 103.388 102.521 80.6009 71.8822 58.5194 57.701 51.0562 49.4929 44.9834 42.6931 42.0281 40.6633 40.4214 34.7751 33.0237 29.7509 26.6365 24.6254 23.8667 24.1213 22.4437 22.8979 20.4246 16.0674 12.6273 12.4571 12.2259 17.1907 12.0959 11.369 9.92681 10.2935 10.4713 9.32462 8.51076 6.5406 6.4101 6.34004 6.01757 11.0459 6.25607 5.57318 4.89294 4.41348 4.4269 4.35833 4.05677 3.4574 2.87476 2.85914 4.52653 2.6798 2.57413 2.55042 3.42624 3.93567 2.28587 2.08684 2.47277 2.94046 2.05112 3.33789 2.04544 2.60237 2.08029 1.52947 1.51497 1.41942 2.52104 1.3414 1.34065 1.3295 1.24849 1.15933 1.05872 0.883792 2.31623 0.814239 0.807843 0.655301 0.565942 0.5486 0.591823 0.377147 0.413224 0.45996 0.859259 0.515257 0.459378 0.40361 0.918939 0.586724 0.372661 0.288354 0.272763 0.2461 0.20849 0.185448 0.107044 0.104234 0.100292 0.094866 0.0660016 0.211613 0.0546289 0.0262417 0.000939119 0.000241002 7.84842e-05 5.47668e-05 2.40149e-06 1.23522e-06 7.026e-07 6.55846e-07 4.59714e-07 3.10542e-07 2.17797e-07 1.99138e-07 1.74522e-07 1.68335e-07 1.58478e-07 1.38013e-07 1.33956e-07 1.19306e-07 9.04807e-08 9.01225e-08 7.69683e-08 4.85825e-08 3.49739e-08 2.93385e-08 2.49469e-08 2.21404e-08 2.07048e-08 1.58893e-08 1.41241e-08 9.11037e-09 7.05192e-09 4.84991e-09 3.34687e-09
threshold=1.0000000180025095e-35 1.0000000180025095e-35 3.5000000000000004 -1.0000000180025095e-35 -0.12857142857142848 1.0000000180025095e-35 12149.110000000002 -1187.5399999999997 -247.05749999999998 2731.1550000000007 11.225000000000001 -0.15042857142857149 1.0000000180025095e-35 -1.0000000180025095e-35 2094.0360000000005 1208.6150000000002 -1.0000000180025095e-35 -707.82999999999993 223.91200000000001 30.555212355212351 -5.4999999999999991 -31.868581081081096 2094.0360000000005 -107.38706756756748 1.0000000180025095e-35 -0.15042857142857149 2.0833333333333353 -707.82999999999993 186732.00000000003 0.36666666666666653 30.555212355212351 6.5000000000000009 1.0000000180025095e-35 -10229.994999999997 14143.505000000003 4.5000000000000009 1950.0966666666652 1.5500000000000003 60.500000000000007 0.18333333333333354 10.500000000000002 -1.0000000180025095e-35 2755.6908333333354 -5434.0499999999993 0.18333333333333354 3.0833333333333353 3913.6500000000005 1.0000000180025095e-35 15127.953333333351 58.500000000000007 4485.6825000000008 30.555212355212351 278.23500000000007 -5874.9999999999991 7.5000000000000009 371.71500000000009 -1521.4999999999998 11705.850000000002 15781.715000000002 2950.5900000000006 2119.5950000000007 2731.1550000000007 -44.824999999999996 38209.990000000013 7.1833333333333362 3.0833333333333353 -768.24285714285691 2238.3566666666652 85286.251000000004 30.344505494505501 -1337.4999999999998 6.5000000000000009 1.1600000000000001 -1244.2117142857148 30.555212355212351 66.500000000000014 1.0000000180025095e-35 51070.500000000007 796.55450000000008 1240.5000000000002 618031.27833333367 0.12857142857142853 19500.097500000003 -19540.899999999998 10740.020000000002 -2523.8899999999994 28623.550000000003 3103.9316666666655 0.63333333333333364 1.0000000180025095e-35 0.91666666666666663 2.3666666666666654 270.44166666666655 1.5000000000000002 0.21428571428571455 -4.4999999999999991 -8.7708494208494177 4100.6000000000013 1.0833333333333353 5.2916666666666661 5.5000000000000009 2145.1700000000005 1.0000000180025095e-35 10.500000000000002 -1398.4999999999998 0.093808925204274071 -789.49999999999989 1.5000000000000002 0.15714285714285703 -0.38571428571428545 1533.6750000000004 336.4318333333336 5881.5350000000008 -28791.799999999996 1.0000000180025095e-35 0.91666666666666663 4.5000000000000009 25778.664166666655 270.44166666666655 60.500000000000007 -4265.8099999999986 4012.5700000000002 1477.1850000000002 9119.1066666666666 10940.563333333301 1.0000000180025095e-35 5.9166666666666661 27494.055000000004 204262.47500000001 -1127.2549999999999 1548.5000000000002 204262.47500000001 27494.055000000004 41781.640000000007 6896.3850000000011 1.0000000180025095e-35 2681.4916666666654 6.5000000000000009 0.12857142857142853 47262.442500000012 -98.13916666666664 -17549.974999999995 11324.475000000002 12.500000000000002 -1079.4749999999997 1706.5000000000002 3568.5000000000005 3653.9100000000003 13.500000000000002 1.0000000180025095e-35
decision_type=2 10 2 8 8 10 2 2 10 2 10 8 8 10 10 2 8 2 10 8 8 10 8 10 2 10 8 2 10 10 10 2 8 10 8 8 8 10 2 10 2 10 10 10 8 8 8 8 10 10 10 10 2 8 10 2 10 10 10 2 10 2 10 2 10 10 10 8 8 10 8 2 10 10 10 8 10 10 8 8 10 10 10 10 10 10 10 8 8 10 10 10 8 8 10 10 8 2 10 10 2 10 10 2 8 8 10 10 10 10 10 10 10 10 2 10 10 10 8 2 10 10 2 10 10 10 10 2 10 10 10 10 2 2 10 2 10 2 10 10 10 8 8 2 2 10 2 10 8 10
left_child=1 2 3 -1 -5 7 8 10 -7 16 -6 -2 14 -10 28 24 -4 36 -12 37 -21 -14 29 -23 26 -3 49 54 39 30 -8 32 34 44 -29 -25 -18 -19 -39 -9 -27 -33 43 47 -22 -24 58 52 62 50 63 -52 -43 -54 55 -11 -44 60 -42 -55 61 -26 67 -13 89 66 84 -38 69 90 -71 72 77 105 81 -76 86 -62 79 -56 107 -75 104 -78 -66 -79 88 -88 94 -57 -51 -80 -87 112 95 -73 97 99 100 -97 101 102 110 109 -63 -58 115 -81 -89 -102 118 113 -94 114 -111 116 117 -93 -98 -115 124 -120 -114 129 -96 130 -123 136 132 141 -124 135 -126 -116 -101 138 140 -134 142 145 144 -121 143 146 -125 -139 -129 149 -147 -145
right_child=11 25 9 4 5 6 22 12 13 27 18 15 21 -15 -16 -17 17 19 -20 20 33 23 45 35 57 40 -28 31 -30 -31 -32 41 -34 -35 -36 -37 48 38 -40 -41 46 42 56 -45 -46 -47 -48 -49 -50 68 51 -53 53 59 78 64 73 -59 -60 -61 71 82 -64 -65 65 -67 -68 -69 -70 70 -72 76 -74 74 75 -77 83 85 91 80 -82 -83 -84 -85 -86 92 87 108 -90 -91 -92 106 93 -95 120 96 98 -99 -100 134 103 -103 -104 -105 -106 -107 -108 -109 -110 111 -112 -113 122 119 133 -117 -118 -119 121 123 -122 126 125 127 128 -127 -128 131 -130 -131 -132 -133 137 -135 -136 -137 -138 139 -140 -141 -142 -143 -144 147 -146 148 -148 -149 -150 -151
leaf_value=0.30653557750226235 -0.34585682368104675 -0.32268314189785391 -0.23733290984362845 0.23683776233881168 -0.14225316432065621 0.076063660124431984 -0.01366947578128995 -0.0092757365644918592 0.45254891154642918 -0.13042719838785427 0.035438625192688096 -0.16866610999757858 -0.032339986032939062 0.20927304135448979 -0.19384903783984905 0.056600868159096117 -0.060142915118952436 -0.14212322876653416 -0.093951126643012237 0.24334941617528255 -0.10289529767736072 0.19224150950992083 -0.18548954995527259 0.0079789267301293241 -0.13291395995309224 -0.26350882619678068 -0.010771392000157903 0.09003536336956762 -0.076136159532388142 -0.072678919140076306 0.18749289897666788 -0.29322974599658225 -0.19421226798634808 0.089202020720646202 -0.10454427956611631 0.10650040696517778 -0.24598950649621226 0.047159551237513857 -0.13213160462902282 0.07085224660952423 -0.1715696557210297 -0.072155789598476919 -0.12281343133742867 -0.043187518005985866 0.030338823062923872 -0.071921607632229587 -0.10661228283392707 -0.22799602210679126 -0.081553566196213817 -0.24974943685716242 -0.15303960867256317 -0.019802110019807657 -0.08990204417480345 -0.15218680421869107 -0.1584527187809944 -0.25229665159589854 -0.22421590205849939 -0.1653084543975312 -0.2467757507096246 -0.23758118921073709 -0.17998407275308412 -0.22575438261156616 -0.13860666539919375 -0.24056894285824434 -0.17843656590790266 -0.24665466900972602 -0.12334992450696827 -0.1727872615214682 -0.2538760207205481 -0.21516693428195269 -0.12171048034152644 -0.21711473511040588 -0.15458359088533716 -0.24897161607103002 -0.12058377021981734 -0.20182693387528886 -0.23912328500794736 -0.1975214988807393 -0.21972858494467182 -0.25602841030554835 -0.19546019270663473 -0.1883942443600157 -0.19396480678621794 -0.1706348815099567 -0.24041025670900065 -0.21542712517202831 -0.16339574450916158 -0.25362173165334445 -0.20487532538663655 -0.2098082709109359 -0.20824382480106254 -0.25546581967135745 -0.23921496990847146 -0.21885672996010208 -0.2536507564546317 -0.21943615759947119 -0.25443699088252436 -0.19815233566952528 -0.22037274732558293 -0.25363125650054147 -0.24102446458321233 -0.19918059406147545 -0.21797837677747503 -0.22468621074362777 -0.25382833999470783 -0.25374706579742762 -0.23116498493243395 -0.23150586892327749 -0.22888544571338645 -0.22929047735089642 -0.23789192917953811 -0.23853721517194484 -0.25369719685708531 -0.25396732178155834 -0.25363211108083178 -0.26221677549754008 -0.2458672892112915 -0.25366319354414185 -0.2537012722270548 -0.25362138058035133 -0.25396908963622977 -0.25364541296795318 -0.25364443908463402 -0.25361526595276362 -0.25362230865036434 -0.25366999982720401 -0.25361193600268117 -0.25360148392557275 -0.25363120864389449 -0.25364924272853634 -0.25362411811708679 -0.25362428586846053 -0.2536174784117593 -0.25361178961837294 -0.2536112950415067 -0.25361661600595292 -0.25362637566770929 -0.25360769429200775 -0.25361152211846039 -0.2536126334206053 -0.25362023132612355 -0.25363143900647639 -0.25360854078618639 -0.25359598530265104 -0.2536077577193237 -0.25360401066109012 -0.25360622308667163 -0.25360212066716886 -0.25359996706680615 -0.25359936816670803
leaf_weight=506.48152163554914 472.88157005608082 350.19159777462482 111.86587423732271 365.13329850067385 1509.4761445471086 366.16664886637591 74.271233668085188 294.64688545721583 143.60472351242788 59.442093790508807 437.31593054509722 62.594892968190834 153.98555870587006 220.16295281657949 162.95928694424219 48.322194196749479 125.45892136357725 113.42203834000975 331.81432932242751 65.645638137531932 85.136779256165028 252.28721600794233 91.434453741414472 163.15250133932568 40.978401195054175 178.85791437875014 69.587825056631118 59.76317284675315 232.67666701320559 93.707179335644469 77.984116261824965 39.059712971400586 58.283505282830447 127.5875648225192 49.527444395236671 169.04283864051104 51.491665247594938 78.930203623138368 60.127720358315855 203.1100530619733 89.035462656058371 65.188329441705719 44.342832600930706 68.0998345464468 55.29702182370238 78.067044874187559 60.040203076554462 58.575774323195219 49.8127117799595 47.784663448575884 47.20925059565343 42.95302109210752 43.144228482386097 54.657193734310567 39.657402699813247 69.726104615954682 34.194857595488429 51.442585787503049 69.434205014724284 46.616448972374201 34.114675672492012 35.9605576084723 54.263410444604233 64.534976830007508 41.72258028248325 47.351174502167851 66.706853688228875 57.763967923820019 64.507409646408632 44.306787559995428 41.713150598108768 34.587936135241762 40.775840364629403 51.669953391887248 41.684664040803909 38.869626704603434 34.671939074527472 40.495323196519166 46.999257055111229 62.767528496449813 47.218062760308385 42.486718196887523 50.676270264899358 33.30069598951377 35.786784705705941 45.185467290692031 30.798130843162653 52.46693680412136 30.892362144310027 48.369556760182604 49.343670305563137 33.676444572163746 34.860689419554546 43.521217760397121 34.837600087979808 36.926508576143533 32.043869275599718 36.436266548844287 45.539051807485521 33.149295292561874 60.169455820694566 32.459050526609644 42.457479210410384 34.919175136150443 66.575884932186455 47.950601275544614 33.647861598758027 34.17161203827709 30.635813679546118 31.147096671396866 31.855932635720819 33.500833967700601 34.584279505768791 42.95873455889523 35.373858764534816 46.792046792805195 32.41756511782296 40.776957789435983 43.224597068547155 31.775873018195853 31.119600645630271 30.56818094686605 61.156644138973206 31.959169132634997 57.319703346351162 32.804579214658588 41.954613349400461 48.745965320151299 37.442882981617004 32.133394580800086 45.275208235252649 30.956870653200895 43.669279845664278 49.909266660455614 45.113557210657746 40.108966256040731 56.02630434022285 33.014846880687401 44.103422401472926 33.019356267061085 31.805949881978449 31.17520534992218 32.556799494195729 38.019111153436825 41.146066059591249 30.375930237118155 55.202806247631088 32.15460367880587 50.236208091489971 36.663396968506277
leaf_count=10432 2116 1567 2381 10322 10615 15652 8871 13368 7664 11653 11441 8627 12973 13183 13732 8678 14860 13750 9050 9886 12719 12567 15342 8152 7247 2621 12300 9399 12293 11602 8818 2071 12434 11927 8901 8355 9038 10256 12429 12367 10668 11930 9722 11488 8473 11952 6159 12593 10440 8568 9164 8097 9261 11579 7921 14932 7833 12294 14893 10119 8092 8170 9827 12321 9490 10922 15114 10744 14407 8516 8033 8771 9632 11449 8852 8614 8411 9990 11065 14402 11336 9645 11614 7638 8300 10223 7866 13425 7712 10547 9491 7712 8528 10633 8710 9357 7254 9369 11526 8455 15435 8152 10543 8909 15296 11122 8222 8330 7826 7980 7835 8602 8458 10418 8978 10630 8081 10085 10602 8128 7723 7756 15380 8221 14662 8035 10838 12701 9508 8040 11565 7901 11248 12897 11651 10333 14266 8566 11402 8529 8175 7904 8433 9960 10654 7895 14332 8388 13106 9576
internal_value=0 -0.043004 -0.0235993 0.0269324 0.000809171 -0.0162368 0.107504 -0.0524812 0.190311 -0.135859 -0.101116 -0.235614 0.0154291 0.305311 -0.0421392 -0.219291 -0.0659671 -0.0452413 -0.0203821 -0.000117713 0.0607593 0.0850749 -0.0379796 0.116009 -0.22353 -0.266123 -0.164825 -0.180279 -0.00829284 0.0276289 0.0893645 -0.149105 -0.0663371 0.0160381 0.00185732 0.0581131 -0.12331 -0.0805702 -0.0303648 0.0234205 -0.216279 -0.169606 -0.162032 -0.131651 -0.0504332 -0.133184 -0.177619 -0.154115 -0.160459 -0.187881 -0.157199 -0.0895657 -0.133468 -0.161144 -0.213705 -0.193573 -0.195951 -0.235548 -0.204522 -0.191494 -0.23696 -0.207492 -0.184496 -0.205166 -0.205695 -0.187694 -0.168335 -0.207287 -0.214802 -0.201039 -0.169848 -0.239379 -0.223199 -0.208577 -0.193119 -0.159786 -0.242799 -0.23072 -0.231477 -0.214859 -0.230377 -0.221637 -0.227439 -0.20557 -0.20705 -0.235843 -0.244142 -0.222572 -0.245529 -0.234894 -0.228664 -0.244514 -0.241061 -0.245654 -0.246251 -0.244381 -0.245078 -0.231966 -0.246731 -0.242661 -0.247768 -0.238884 -0.244687 -0.250274 -0.243983 -0.241454 -0.250733 -0.247384 -0.244503 -0.251304 -0.250999 -0.25207 -0.251242 -0.252655 -0.247112 -0.255018 -0.251866 -0.254479 -0.253824 -0.253637 -0.253649 -0.253654 -0.253654 -0.253614 -0.253618 -0.253644 -0.253626 -0.25361 -0.253614 -0.253634 -0.253636 -0.253607 -0.253611 -0.25362 -0.25362 -0.253605 -0.253618 -0.253608 -0.253604 -0.253605 -0.253614 -0.253626 -0.253602 -0.253601 -0.253611 -0.253603 -0.253604 -0.253599 -0.253601 -0.253598
internal_weight=0 9343.19 8595.63 5927.48 5421 5055.87 1145.4 3910.47 729.934 2668.15 2278.61 3666.78 1631.86 363.768 893.393 3193.9 1036.8 924.938 769.13 586.147 333.667 738.468 415.464 584.483 3145.57 747.559 534.536 1631.34 730.434 245.963 152.255 844.115 167.574 268.021 109.291 332.195 338.791 252.48 139.058 497.757 397.368 676.541 637.481 336.282 140.434 169.501 218.51 268.182 213.332 464.948 217.292 90.1623 209.606 144.418 787.23 369.105 301.199 2611.04 158.47 101.274 2559.59 194.191 163.519 127.13 309.663 191.567 144.216 109.256 247.656 183.148 86.0199 2365.4 412.774 256.856 174.711 80.5543 1952.63 371.998 418.125 183.815 144.157 94.1567 153.213 67.9726 77.5094 337.883 1884.66 113.901 1770.76 118.096 97.1283 234.31 297.388 252.203 1739.86 1388.83 1354.24 151.626 1202.62 115.189 1157.08 254.564 222.105 902.512 102.536 82.1455 187.311 96.9391 83.1028 867.593 179.647 807.424 208.681 773.923 116.43 153.663 106.871 74.4534 147.791 657.493 351.035 115.747 173.821 614.534 319.916 139.236 72.5228 519.449 285.078 95.0845 106.432 358.512 247.635 85.2831 78.2629 327.555 160.937 190.316 287.446 146.646 104.911 62.9511 243.343 210.786 73.1052 113.627 103.949 106.837 80.6121 74.6825
internal_count=1519185 757143 721235 238751 228319 217997 93084 124913 36499 482484 31106 762042 93807 20847 51760 759926 136730 134349 20491 79440 43005 42047 56585 29074 751248 35908 99524 345754 38028 29291 17689 167012 30734 33119 18300 16507 54909 36435 22685 25735 34341 136278 134207 66970 21192 27294 31720 55482 40049 87224 38209 17261 42889 30959 178742 80958 67237 651724 25561 21698 639430 42327 29609 20948 69305 43826 32904 19782 49015 34608 16549 597103 100536 57515 38560 17466 496567 90904 97784 41989 34068 21094 35080 16049 17790 82812 480518 29117 451401 25479 18059 55795 72822 62599 443689 353742 344971 38832 306139 29463 294613 62980 54828 231633 23466 18955 44730 22732 21251 222724 44285 207289 51966 198687 29855 36508 25878 17797 36450 168832 89947 29196 43438 158414 82224 34980 18594 134342 73514 24072 26945 93026 64006 21875 20106 85125 41316 49344 74792 38096 27050 16032 63390 54957 18875 29567 27033 27924 21001 19536
is_linear=0
shrinkage=0.252623


Tree=3
num_leaves=155
num_cat=0
split_feature=55 32 229 740 229 111 700 20 230 11 10 307 197 1 179 138 205 1 427 76 111 267 464 206 1 649 465 32 67 175 78 117 268 1 149 20 649 466 309 377 495 171 205 131 36 10 352 28 4 307 176 462 152 11 284 330 475 491 461 633 469 626 229 0 117 546 277 633 5 377 481 621 5 195 330 427 0 649 359 5 401 626 496 145 186 395 11 178 141 290 372 5 636 607 404 525 525 634 203 525 266 612 714 319 279 204 267 371 654 277 177 654 491 586 149 11 689 111 32 491 10 141 481 491 218 119 178 11 495 681 150 268 495 119 497 11 709 495 377 600 495 491 328 31 276 362 120 438 495 328 218 149 586 495
split_gain=1235.51 478.478 529.038 345.031 260.962 245.068 288.891 261.285 230.158 239.23 122.047 103.521 81.9405 73.1025 72.4571 61.212 59.1305 55.81 53.0541 47.8868 45.8249 44.0517 38.972 36.4768 32.2879 29.9396 39.1685 28.1427 26.3204 25.3388 24.7904 22.4947 22.3838 22.2746 18.1537 16.3983 16.3497 15.3228 14.4584 13.9166 12.5217 11.147 9.96182 9.7707 8.79636 9.56779 8.65493 8.54883 8.47955 6.93371 6.77979 6.58067 5.50959 5.20485 6.90487 5.06188 6.73126 4.56819 4.47315 4.27555 6.4616 3.9931 3.73945 3.37221 3.07991 3.00571 3.91056 2.96262 2.80526 2.6236 2.48669 3.91242 2.52257 2.26814 1.87424 1.82094 1.66989 1.53962 1.48564 1.98221 1.45497 1.31924 1.31132 1.6686 1.28368 1.20488 1.62217 1.1389 0.93324 2.42761 0.926736 0.812008 1.05249 0.780139 1.03297 0.750523 0.662693 0.64395 0.577622 0.487426 0.670222 0.474824 0.445595 0.330778 0.728198 0.281507 0.219854 0.236437 0.344697 0.242557 0.366928 0.182714 0.130025 0.121755 0.0834317 0.0772485 0.0397266 1.5252e-05 9.61311e-06 9.60656e-06 3.41686e-06 2.62453e-06 1.45454e-06 1.40357e-06 5.67785e-07 5.3351e-07 4.72589e-07 4.68949e-07 3.19744e-07 2.53846e-07 2.40959e-07 1.85249e-07 1.60985e-07 1.18216e-07 1.08972e-07 8.75665e-08 7.62241e-08 7.12249e-08 6.46802e-08 5.55107e-08 5.5497e-08 5.38946e-08 5.1108e-08 4.55492e-08 3.86138e-08 2.89126e-08 2.42902e-08 2.19623e-08 1.16836e-08 6.46554e-09 6.22757e-09 4.34464e-09 4.24562e-09 1.52808e-09
threshold=1.0000000180025095e-35 9618.8350000000009 1.0000000180025095e-35 4.0000000000000009 -6563.6094285714344 10.500000000000002 1.0000000180025095e-35 -16.504999999999995 34583.494166666707 234.84500000000003 -70.984999999999985 128.43671428571454 0.27142857142857152 202003.50000000003 -0.107142857142857 65988.000000000015 -0.15042857142857149 202004.50000000003 0.092857142857142874 1208.6150000000002 66.500000000000014 -1467.4741428571349 5239.8966666666711 0.95550000000000013 202008.50000000003 3.0100000000000002 -0.083554817275747484 848.07000000000005 1.0000000180025095e-35 -17.038499999999996 393.89000000000004 -1154.4999999999998 32157.3966666667 202003.50000000003 4.5000000000000009 -865.12999999999988 0.75499999999999556 10.916666666666652 -0.055598455598455589 -1.8011627906976748 2838.4600000000005 -230.04416090509346 -0.066857142857142685 1071.5000000000002 1.0000000180025095e-35 -501.36499999999995 0.18333333333333354 1.0000000180025095e-35 1.0000000180025095e-35 171.40171428571401 -131.70949999999996 1215.2500000000002 1.1600000000000001 536.87500000000011 3351.4533333333306 19500.097500000003 58.500000000000007 1.0000000180025095e-35 30.555212355212351 -1488.2499999999998 153.43714285714353 25628.850000000002 -4503.8411428571389 35832180.500000007 -1718.9999999999998 6.5000000000000009 -0.071428571428571383 237.69500000000002 65.500000000000014 -1.0000000180025095e-35 6.5000000000000009 1.1600000000000001 55.500000000000007 7.5014285714286109 242588.17150000003 -0.027799227799227794 18843920.500000004 -2523.8899999999994 -0.167109634551495 71.500000000000014 1.9402857142857102 1924.6500000000003 2.5000000000000004 4.6550000000000011 0.91666666666666663 1.0000000180025095e-35 422.88500000000005 805.84100000000012 1860.6450000000002 1.0000000180025095e-35 945.75000000000011 57.500000000000007 1105.8500000000001 80028.000000000015 112727.44000000002 99179.750000000015 46088.860000000008 -35.880000000000045 -60500.658571428597 41031.530000000006 1.2916666666666652 3438.8500000000008 -17528.354999999996 -0.15714285714285697 320.59442857142852 83746.039166666669 25051.037142857153 10697.920265780753 2968.4500000000003 0.35714285714285704 -32.106999999999843 -6875.0999999999995 785.33000000000004 -1185.4999999999998 14.000000000000002 323.74500000000006 -622.15999999999883 48.500000000000007 3054.8500000000008 6791.4000000000005 -600.75499999999988 4012.5700000000002 7.5000000000000009 8454.8750000000018 8.2250000000000014 25932.385000000006 368.67300000000006 153.11500000000004 70541.705000000016 -71461.759999999995 28623.550000000003 32157.3966666667 70541.705000000016 8469.5150000000012 3.5000000000000004 193.23500000000004 -2.4999999999999996 41836.350000000006 -8.7708494208494177 912.50000000000011 41836.350000000006 5272.0050000000001 6.1833333333333362 5.5000000000000009 678.98833333333357 0.18333333333333354 11051.685000000003 7507.3250000000007 34373.790000000008 1.3666666666666651 11.633333333333352 5.5000000000000009 -1094.4999999999998 82960.215000000011
decision_type=2 2 10 10 8 2 10 2 8 2 2 10 10 2 10 10 8 2 10 2 2 10 10 8 2 10 8 2 2 10 2 8 10 2 8 2 10 8 10 8 10 8 8 10 2 2 10 2 10 10 10 8 8 2 8 10 10 10 10 10 10 10 10 2 8 10 8 8 2 10 8 10 2 10 10 8 2 10 10 2 10 8 10 10 8 8 2 10 10 10 10 2 8 8 8 10 10 10 10 10 10 10 10 10 10 10 10 10 8 10 10 10 10 10 10 2 10 2 2 10 2 10 10 10 8 10 10 2 10 10 10 10 10 8 10 2 10 8 8 10 10 10 10 2 10 10 8 10 8 10 8 10 10 10
left_child=1 2 3 4 -1 7 8 15 9 10 22 13 16 38 -15 -6 -2 -9 20 27 23 -11 40 -3 37 26 -16 46 29 -23 -26 -19 42 -31 -28 -4 -35 49 -12 -10 -7 -32 -22 44 45 47 55 -44 -30 50 57 -48 67 54 58 62 -57 -25 81 -60 -61 70 -18 -41 -64 66 -55 -50 85 -49 71 72 77 93 75 -72 -68 -29 -67 82 84 -45 87 -84 88 86 -59 90 89 -77 -80 98 96 -66 -95 99 -93 -96 -90 100 -79 103 -89 104 105 124 107 109 -109 112 -111 -104 -105 -98 116 -83 -114 -118 -119 -113 122 -101 -121 127 -100 129 -123 -120 -124 -125 131 -131 -115 141 -128 137 -137 -133 144 -136 -126 -129 143 147 -138 146 148 -140 149 -145 152 153 -150 -152
right_child=12 18 35 -5 5 6 -8 17 39 21 11 -13 -14 14 25 -17 19 31 -20 -21 32 28 -24 24 30 -27 34 61 48 33 41 -33 -34 36 -36 -37 -38 -39 -40 63 -42 -43 43 53 -46 -47 51 69 52 -51 -52 -53 -54 65 -56 56 -58 68 59 60 -62 -63 64 -65 73 78 76 -69 -70 -71 74 -73 -74 -75 -76 80 -78 95 79 -81 -82 115 83 -85 -86 -87 -88 102 91 -91 -92 92 -94 94 97 -97 113 -99 101 121 -102 -103 111 106 -106 -107 -108 108 -110 110 -112 119 114 132 -116 -117 117 118 123 120 -122 126 128 125 140 -127 134 133 -130 130 -132 135 -134 -135 139 136 138 -139 142 -141 -142 -143 -144 145 -146 -147 -148 -149 150 -151 151 -153 -154 -155
leaf_value=0.19323686606443852 -0.31912700689561135 -0.26807350856917872 -0.19880116131273792 0.34562471074512768 -0.051220952236766357 -0.026831014167619353 0.40095719134034835 -0.03120179299092354 -0.082912185363102825 0.14346081379129635 0.064096599572446122 0.32896707452733437 0.17005907032160592 0.31588105994391685 0.25287630408301426 -0.13393635089807859 -0.13397628244586321 0.062290668116963273 0.12089108815827929 0.03448422730544768 -0.31905703889856657 -0.14340315345877885 0.1234137266092233 -0.11413244902221249 0.13274787957554005 0.019096746380034512 0.046278124910529322 -0.18213132435968382 -0.070326305937796513 -0.11457854732557551 -0.13292811480541367 0.17379764707495846 -0.0065573749937893793 0.11378944978508274 0.15676807825136058 -0.28540890852728557 -0.042207063713013276 0.0012064155125011849 -0.049211102683276525 -0.20878535864539535 -0.13829369604781647 -0.0020350051086807505 -0.060678295804456779 -0.19068014585314635 -0.23041140689726161 -0.030915174039332628 -0.014436237419393072 -0.14389956469820492 -0.16642141024750204 -0.06538299188557474 -0.095807685069035989 -0.1538703780413026 -0.11420993947204507 -0.11323192328580174 -0.065918690368803809 -0.055859240785411886 -0.19240807470354937 -0.17257113269857099 -0.22149656197155615 -0.051255567899207446 -0.19202053778204434 -0.16138518653327433 -0.14985567830879742 -0.15256913618206439 -0.25595250458681784 -0.17596471125541613 -0.24250200560147447 -0.24046301341767384 -0.13775554845179885 -0.23845907610009456 -0.17139068053239598 -0.13709017265999712 -0.15535411438647048 -0.16974627195080552 -0.17456073225512436 -0.15800486391392352 -0.1751266946660916 -0.25418139466595258 -0.23785602994481098 -0.16745087444198414 -0.18521919357311425 -0.25361217056917246 -0.23765326014654445 -0.15276686486298138 -0.19234385060190964 -0.24894068443085723 -0.23695245034169071 -0.21573479396731718 -0.21207177107963038 -0.25357258904582036 -0.17562409765258705 -0.20539022230363688 -0.18325779012110896 -0.18351028582860446 -0.20860135984883874 -0.20908505627047139 -0.23249355029699834 -0.25138564856020068 -0.25345685385027122 -0.25351975313441255 -0.20321268499178774 -0.21889379215911117 -0.23482466909667293 -0.23447860676023166 -0.20058527694159128 -0.22239011530752287 -0.22808864800526546 -0.25341648374598685 -0.21156856529200793 -0.21141563408539135 -0.25341404213084517 -0.25364349985283363 -0.2430813217214125 -0.25342608409036549 -0.24174520609975456 -0.23609916222761704 -0.25358189839251583 -0.2535616233959479 -0.25345228837956146 -0.25350772359119672 -0.25355165711013788 -0.25346123676512122 -0.25346881921070502 -0.25341404088797198 -0.25342028423112278 -0.25342928089011746 -0.2534355102521002 -0.25341760423414689 -0.25343306631166324 -0.2534088826035179 -0.25341797787228509 -0.25341042374829964 -0.25340046893031132 -0.25343101238033816 -0.2534253456048714 -0.25340141694775337 -0.25339056186756959 -0.25339156013356584 -0.25338875120155713 -0.25340943667453836 -0.25340375416860228 -0.25340315151097148 -0.25339795480014876 -0.25338438565253585 -0.25340469369914953 -0.25339160870166938 -0.25339170265799682 -0.25339771695800478 -0.25338665989813236 -0.25338959999253735 -0.25338099541485842 -0.25338335686737218 -0.25338251251299576 -0.25337831133182853
leaf_weight=433.93183846143074 393.12198214232922 77.759131065336987 279.87469262024388 194.54673035792075 973.08563841087744 196.79394608712755 136.8497346600052 207.0418979045935 129.53910636994988 57.00205366499722 141.55709676421247 168.13303418806754 33.391859207302332 146.06068223086186 158.86788117024116 1381.6835110066459 53.254621447296813 201.67219574796036 46.114946378860623 48.595527349505574 37.736291767803777 112.65870745037682 94.423668108647689 52.987818681169301 58.960757824359462 147.52501905336976 183.21739637409337 35.4034491723869 68.629613367142156 75.105446807807311 71.890855812467635 270.07795151136816 43.397395756328478 104.20759986992925 196.87483218987472 278.20492538699182 72.853690112940967 53.46575443749316 145.9926208446268 150.49344099708833 95.550885204458609 98.288881220854819 40.577385888202116 48.139056287938729 54.247499986784533 58.942177505261498 37.777440855978057 29.934820372378454 72.090379809495062 61.451101654442027 83.078617890365422 50.446957851527259 68.466753003187478 39.597699569305405 34.978934672661126 43.183538630604744 49.389264398254454 60.539951889542863 39.234026582213119 42.400655124802142 40.872415125137195 49.3749957208056 49.763370366417803 124.38140456518158 57.909157877322286 39.09227979159914 45.684830598300323 66.120710904244334 38.787724459310994 50.007271974114701 24.607575991889462 36.876125453738496 30.805756848538294 47.451872569741681 28.826206121128052 28.741856461390853 48.293384697055444 30.976814756402746 32.058717499254271 32.285333843668923 29.628518521785736 36.194100958295166 31.83551288000308 27.582046620780602 32.833412595558912 44.324820471229032 42.516445991117507 26.75010531488806 30.557435006601736 41.391998141771182 29.163464879151434 31.509001925587654 28.714311169693246 34.857319192029536 37.177544955164194 45.548478280426934 24.144454381428659 56.67644990910776 26.793108855723403 26.872424265136942 35.145537543576211 36.59598233133147 40.569669482996687 26.103270350024104 28.695166507270187 24.434175787726417 29.469762756256387 26.176772104809061 24.150301891611889 24.065949065610766 29.610040243715048 33.664745455374941 24.45500953332521 24.853814001304272 43.272987440112047 28.914563747588545 32.643151953350753 24.459735853364691 31.167151301167905 40.231765206903219 46.593831565231085 26.578379428712651 26.135063645429909 39.611703347647563 24.627176529029384 29.447157878879807 28.166104199597612 34.830347213428468 41.016814678441733 38.875763712683693 23.890595704229781 24.832566341385245 42.319886832265183 25.532430971972644 24.633715490577742 32.953201106502092 25.45132218580693 26.306139982305467 40.915509873768315 32.417062610853463 27.364407608329202 31.230550334090367 28.684818235808052 40.956252946518362 23.951644459273666 41.210568648064509 25.734133459394798 30.384632162051275 25.270975041668862 24.109284357633442 24.208155727246776 28.097229429520667 41.819491869304329 30.706004333449528
leaf_count=11473 2020 2760 7395 1929 7460 13755 9516 12149 9050 8095 7443 7970 3552 5223 9069 13196 10759 9317 6851 8390 190 14482 10072 5202 8185 10870 10106 10600 10532 9734 12910 10483 10964 12047 9987 8923 10466 10341 8544 13232 10782 15276 10444 12501 13681 13824 7502 8087 14484 8126 13347 11421 9932 10930 8913 9261 12545 11472 9957 9636 9271 14846 10372 8082 13538 11509 12884 12904 8683 13443 7234 10226 9329 10982 9154 7470 13320 8587 8634 9359 9413 9693 9242 8071 9745 9630 10290 7895 9950 11873 8035 9815 9215 8271 8541 14180 7794 12495 8428 7984 10606 11902 12030 7637 9341 7970 9346 8502 7861 7874 9646 8959 7940 7976 13939 7999 9872 6962 9691 11760 13125 8193 8016 12794 7904 9344 8900 11219 12996 12648 7670 8071 13895 8107 7866 10803 8460 8725 13615 10527 8952 10236 9443 13702 7821 13679 8543 10010 8431 8018 8132 9419 14016 10342
internal_value=0 -0.0361826 -0.00583021 0.0142122 0.00410782 -0.00969237 0.0426371 -0.059949 0.0249763 0.0550078 0.106764 0.144129 -0.223456 0.116383 0.154312 -0.099755 -0.227905 0.0781405 -0.146861 -0.213899 -0.153325 -0.0693463 -0.0176878 -0.10434 -0.0852317 0.119935 0.147537 -0.218704 -0.0882962 -0.0437971 -0.00842024 0.126129 -0.184579 0.000703154 0.103508 -0.241975 0.0496031 -0.125494 0.00656885 -0.151177 -0.0632618 -0.0573296 -0.19146 -0.187023 -0.141269 -0.114323 -0.166236 -0.155116 -0.147265 -0.143149 -0.157979 -0.0941651 -0.172813 -0.199583 -0.170657 -0.181034 -0.128711 -0.179576 -0.186197 -0.152741 -0.120346 -0.232332 -0.195403 -0.183347 -0.206929 -0.213073 -0.179822 -0.201843 -0.198203 -0.203051 -0.234133 -0.214965 -0.224037 -0.219062 -0.23839 -0.239568 -0.207879 -0.231441 -0.22301 -0.227518 -0.240659 -0.22239 -0.232682 -0.198248 -0.241748 -0.214112 -0.199132 -0.239152 -0.242848 -0.214408 -0.208212 -0.244267 -0.2268 -0.231602 -0.220646 -0.238415 -0.23698 -0.234438 -0.246378 -0.244938 -0.22709 -0.247236 -0.246582 -0.24811 -0.236183 -0.24608 -0.249602 -0.25022 -0.233335 -0.251092 -0.234584 -0.250198 -0.252054 -0.24788 -0.252566 -0.245835 -0.253116 -0.253413 -0.253406 -0.253521 -0.253495 -0.253449 -0.25347 -0.253401 -0.253427 -0.253396 -0.253432 -0.253426 -0.253447 -0.253394 -0.253393 -0.253392 -0.25341 -0.253416 -0.253423 -0.253391 -0.25339 -0.253401 -0.253389 -0.253416 -0.253412 -0.253411 -0.253388 -0.253387 -0.253397 -0.253385 -0.253384 -0.253393 -0.253383 -0.253386 -0.253382 -0.253381 -0.253384 -0.253379
internal_weight=0 9089.81 7133.52 6575.44 6380.89 5946.96 2913.4 3033.56 2776.55 2372.13 1675 1288.23 2987.02 1120.1 832.546 2354.77 2953.63 678.792 1956.3 2560.51 1910.18 697.135 386.768 744.052 666.293 686.485 538.96 2511.91 640.133 364.825 229.14 471.75 1166.13 252.167 380.092 558.08 177.061 437.152 287.55 404.414 292.345 170.18 1122.73 1085 233.709 179.462 517.888 120.519 275.307 383.686 322.235 88.2244 206.678 851.289 270.734 429.663 92.5728 239.157 235.755 122.507 83.2731 1994.02 337.09 274.875 283.836 580.555 133.576 138.211 186.169 79.9421 1944.65 353.424 316.548 234.072 1591.22 1562.4 93.9782 285.742 446.979 407.887 1537.79 113.248 375.602 59.4176 1508.16 147.381 103.056 316.184 1475.33 70.1339 61.2222 1405.19 151.541 186.62 128.711 250.339 122.827 93.854 1253.65 204.79 66.1224 1223.09 254.962 1186.5 131.914 103.219 1054.58 1025.11 50.3271 974.788 53.676 228.212 921.112 91.3182 895.009 65.1087 851.736 827.281 794.637 187.642 153.977 138.668 107.384 770.178 78.7847 647.417 111.795 122.76 67.1519 617.97 578.358 554.468 67.1737 91.5933 85.2169 515.592 464.453 51.1387 431.5 57.0508 51.9916 66.0609 382.097 353.412 49.403 282.112 240.902 71.3001 215.167 65.0655 150.102 83.0114 67.0905 54.9142
internal_count=1519185 757143 328702 312384 310455 298982 246377 52605 236861 206497 103821 69212 762042 61242 45255 20656 758490 31949 428441 756470 421590 102676 34609 116222 113462 40032 29162 748080 94581 46729 36371 19800 305368 32247 20093 16318 22513 77091 15987 30364 24537 28186 294404 294214 59479 45798 115687 31974 47852 66750 58624 18923 37320 234735 67970 96764 21806 45277 59057 28864 18907 632393 74958 21314 64199 166765 37134 27388 40075 21530 617547 106998 96772 53827 510549 501395 26204 87443 129631 118122 494161 30193 108763 17313 484748 31392 21762 91450 475003 19343 16669 455660 48695 42845 29307 76843 39480 21036 406965 62663 19193 397015 74781 385113 42595 33254 342518 333172 16363 316809 17520 66886 299289 29665 291652 17692 277713 269773 259901 54856 45897 43470 32772 252939 25284 213686 35486 39253 21012 204342 191548 183878 21871 29562 27293 171230 154434 16796 143631 18393 16856 21455 127350 117907 16281 94282 80603 23625 72060 21720 50340 27893 22447 18474
is_linear=0
shrinkage=0.252623


Tree=4
num_leaves=164
num_cat=0
split_feature=55 37 229 32 100 351 438 609 170 11 33 378 305 1 198 32 196 26 280 205 266 205 474 279 443 172 310 174 205 32 1 458 60 139 461 474 311 305 116 651 78 206 305 229 430 166 56 1 120 401 212 99 448 752 27 219 358 26 68 86 26 157 78 461 85 358 381 37 179 378 12 459 474 62 26 620 323 122 334 378 580 37 102 454 495 588 427 401 448 179 525 139 437 324 380 309 324 150 546 647 214 279 681 357 570 361 212 323 324 580 620 736 358 171 27 458 657 610 379 203 157 108 311 653 744 312 22 141 32 22 9 525 22 22 460 9 166 178 681 394 525 497 266 321 474 324 31 312 157 203 491 203 525 31 554 166 724 440 394 214 600 324 170
